599 10
AFP_ENG_20030304.0250.txt 0.0 0.0 0.0 0.0 0.0 1.0 0.0 0.0 0.0 0.0
AFP_ENG_20030305.0918.txt 0.0 0.0 1.0 0.0 0.0 0.0 0.0 0.0 0.0 0.0
AFP_ENG_20030311.0491.txt 0.0 0.0 0.0 0.0 0.0 0.0 0.0 0.0 0.0 1.0
AFP_ENG_20030314.0238.txt 1.0 0.0 0.0 0.0 0.0 0.0 0.0 0.0 0.0 0.0
AFP_ENG_20030319.0879.txt 0.0 0.0 0.0 0.0 0.0 1.0 0.0 0.0 0.0 0.0
AFP_ENG_20030320.0722.txt 0.0 0.0 0.0 0.0 0.0 0.0 0.0 0.0 0.0 1.0
AFP_ENG_20030323.0020.txt 0.0 0.0 0.0 0.0 0.0 0.0 0.0 0.0 1.0 0.0
AFP_ENG_20030327.0022.txt 0.0 0.0 0.0 0.0 0.0 1.0 0.0 0.0 0.0 0.0
AFP_ENG_20030327.0224.txt 0.0 0.0 0.0 0.0 0.0 0.0 0.0 0.0 1.0 0.0
AFP_ENG_20030330.0211.txt 0.0 0.0 0.0 0.0 1.0 0.0 0.0 0.0 0.0 0.0
AFP_ENG_20030401.0476.txt 0.0 0.0 0.0 1.0 0.0 0.0 0.0 0.0 0.0 0.0
AFP_ENG_20030413.0098.txt 0.0 0.0 0.0 0.0 1.0 0.0 0.0 0.0 0.0 0.0
AFP_ENG_20030415.0734.txt 0.0 0.0 0.0 1.0 0.0 0.0 0.0 0.0 0.0 0.0
AFP_ENG_20030417.0004.txt 0.0 0.0 0.0 0.0 1.0 0.0 0.0 0.0 0.0 0.0
AFP_ENG_20030417.0307.txt 0.0 0.0 0.0 0.0 1.0 0.0 0.0 0.0 0.0 0.0
AFP_ENG_20030417.0764.txt 0.0 0.0 0.0 0.0 0.0 0.0 0.0 0.0 0.0 1.0
AFP_ENG_20030418.0556.txt 0.0 0.0 0.0 0.0 0.0 0.0 1.0 0.0 0.0 0.0
AFP_ENG_20030425.0408.txt 0.0 0.0 0.0 0.0 0.0 0.0 1.0 0.0 0.0 0.0
AFP_ENG_20030427.0118.txt 0.0 0.0 0.0 0.0 1.0 0.0 0.0 0.0 0.0 0.0
AFP_ENG_20030428.0720.txt 0.0 0.0 0.0 0.0 0.0 0.0 1.0 0.0 0.0 0.0
AFP_ENG_20030429.0007.txt 0.0 0.0 0.0 0.0 0.0 0.0 0.0 1.0 0.0 0.0
AFP_ENG_20030430.0075.txt 0.0 0.0 0.0 0.0 0.0 0.0 1.0 0.0 0.0 0.0
AFP_ENG_20030502.0614.txt 0.0 0.0 0.0 0.0 0.0 1.0 0.0 0.0 0.0 0.0
AFP_ENG_20030504.0248.txt 0.0 0.0 0.0 0.0 1.0 0.0 0.0 0.0 0.0 0.0
AFP_ENG_20030508.0118.txt 0.0 0.0 0.0 0.0 0.0 1.0 0.0 0.0 0.0 0.0
AFP_ENG_20030508.0357.txt 0.0 0.0 0.0 1.0 0.0 0.0 0.0 0.0 0.0 0.0
AFP_ENG_20030509.0345.txt 0.0 1.0 0.0 0.0 0.0 0.0 0.0 0.0 0.0 0.0
AFP_ENG_20030514.0706.txt 0.0 0.0 0.0 0.0 0.0 0.0 0.0 0.0 0.0 1.0
AFP_ENG_20030519.0049.txt 0.0 0.0 0.0 1.0 0.0 0.0 0.0 0.0 0.0 0.0
AFP_ENG_20030519.0372.txt 0.0 0.0 0.0 0.0 0.0 0.0 0.0 1.0 0.0 0.0
AFP_ENG_20030522.0878.txt 0.0 0.0 0.0 0.0 0.0 0.0 0.0 1.0 0.0 0.0
AFP_ENG_20030527.0616.txt 0.0 0.0 1.0 0.0 0.0 0.0 0.0 0.0 0.0 0.0
AFP_ENG_20030528.0561.txt 0.0 0.0 0.0 0.0 0.0 0.0 1.0 0.0 0.0 0.0
AFP_ENG_20030530.0132.txt 0.0 0.0 0.0 0.0 0.0 0.0 0.0 1.0 0.0 0.0
AFP_ENG_20030601.0262.txt 0.0 0.0 0.0 0.0 1.0 0.0 0.0 0.0 0.0 0.0
AFP_ENG_20030607.0030.txt 0.0 0.0 0.0 1.0 0.0 0.0 0.0 0.0 0.0 0.0
AFP_ENG_20030616.0715.txt 0.0 0.0 0.0 1.0 0.0 0.0 0.0 0.0 0.0 0.0
AFP_ENG_20030617.0846.txt 0.0 0.0 0.0 0.0 0.0 0.0 1.0 0.0 0.0 0.0
AFP_ENG_20030625.0057.txt 0.0 0.0 0.0 0.0 0.0 0.0 1.0 0.0 0.0 0.0
AFP_ENG_20030630.0271.txt 0.0 0.0 0.0 0.0 0.0 0.0 0.0 1.0 0.0 0.0
AGGRESSIVEVOICEDAILY_20041101.1144.txt 0.0 0.0 0.0 0.0 0.0 0.0 0.0 1.0 0.0 0.0
AGGRESSIVEVOICEDAILY_20041101.1806.txt 0.0 0.0 0.0 1.0 0.0 0.0 0.0 0.0 0.0 0.0
AGGRESSIVEVOICEDAILY_20041116.1347.txt 1.0 0.0 0.0 0.0 0.0 0.0 0.0 0.0 0.0 0.0
AGGRESSIVEVOICEDAILY_20041201.2313.txt 1.0 0.0 0.0 0.0 0.0 0.0 0.0 0.0 0.0 0.0
AGGRESSIVEVOICEDAILY_20041203.1959.txt 0.0 0.0 0.0 0.0 0.0 0.0 0.0 1.0 0.0 0.0
AGGRESSIVEVOICEDAILY_20041208.2133.txt 1.0 0.0 0.0 0.0 0.0 0.0 0.0 0.0 0.0 0.0
AGGRESSIVEVOICEDAILY_20041215.2302.txt 0.0 0.0 0.0 0.0 0.0 0.0 0.0 0.0 0.0 1.0
AGGRESSIVEVOICEDAILY_20041218.0146.txt 1.0 0.0 0.0 0.0 0.0 0.0 0.0 0.0 0.0 0.0
AGGRESSIVEVOICEDAILY_20041218.1004.txt 0.0 0.0 0.0 0.0 0.0 0.0 0.0 0.0 1.0 0.0
AGGRESSIVEVOICEDAILY_20041223.1449.txt 0.0 0.0 0.0 0.0 0.0 0.0 1.0 0.0 0.0 0.0
AGGRESSIVEVOICEDAILY_20041226.1712.txt 0.0 0.0 1.0 0.0 0.0 0.0 0.0 0.0 0.0 0.0
AGGRESSIVEVOICEDAILY_20050105.1344.txt 0.0 0.0 0.0 0.0 0.0 0.0 0.0 0.0 0.0 1.0
AGGRESSIVEVOICEDAILY_20050106.1310.txt 0.0 0.0 0.0 0.0 0.0 0.0 0.0 0.0 1.0 0.0
AGGRESSIVEVOICEDAILY_20050107.2012.txt 0.0 0.0 0.0 0.0 0.0 0.0 0.0 0.0 1.0 0.0
AGGRESSIVEVOICEDAILY_20050109.1627.txt 0.0 0.0 0.0 0.0 0.0 0.0 1.0 0.0 0.0 0.0
AGGRESSIVEVOICEDAILY_20050113.1400.txt 0.0 0.0 0.0 1.0 0.0 0.0 0.0 0.0 0.0 0.0
AGGRESSIVEVOICEDAILY_20050114.1922.txt 0.0 0.0 0.0 0.0 0.0 0.0 0.0 0.0 1.0 0.0
AGGRESSIVEVOICEDAILY_20050116.2149.txt 1.0 0.0 0.0 0.0 0.0 0.0 0.0 0.0 0.0 0.0
AGGRESSIVEVOICEDAILY_20050124.1354.txt 0.0 0.0 0.0 0.0 0.0 0.0 0.0 0.0 1.0 0.0
AGGRESSIVEVOICEDAILY_20050125.0136.txt 0.0 0.0 0.0 0.0 1.0 0.0 0.0 0.0 0.0 0.0
AGGRESSIVEVOICEDAILY_20050203.1356.txt 0.0 0.0 1.0 0.0 0.0 0.0 0.0 0.0 0.0 0.0
AGGRESSIVEVOICEDAILY_20050205.1954.txt 0.0 0.0 0.0 0.0 0.0 0.0 0.0 0.0 1.0 0.0
AGGRESSIVEVOICEDAILY_20050208.1142.txt 0.0 0.0 0.0 0.0 0.0 0.0 0.0 0.0 0.0 1.0
AGGRESSIVEVOICEDAILY_20050213.2123.txt 0.0 0.0 0.0 0.0 1.0 0.0 0.0 0.0 0.0 0.0
AGGRESSIVEVOICEDAILY_20050224.1207.txt 0.0 0.0 0.0 1.0 0.0 0.0 0.0 0.0 0.0 0.0
AGGRESSIVEVOICEDAILY_20050224.2252.txt 0.0 0.0 0.0 0.0 1.0 0.0 0.0 0.0 0.0 0.0
alt.atheism_20041104.2428.txt 0.0 0.0 0.0 0.0 0.0 0.0 0.0 0.0 0.0 1.0
alt.books.tom-clancy_20050130.1848.txt 0.0 0.0 0.0 0.0 1.0 0.0 0.0 0.0 0.0 0.0
alt.collecting.autographs_20050224.2438.txt 1.0 0.0 0.0 0.0 0.0 0.0 0.0 0.0 0.0 0.0
alt.corel_20041228.0503.txt 0.0 0.0 0.0 0.0 0.0 0.0 0.0 0.0 0.0 1.0
alt.gossip.celebrities_20041118.2331.txt 0.0 0.0 0.0 0.0 0.0 0.0 0.0 0.0 1.0 0.0
alt.gossip.celebrities_20050218.0826.txt 1.0 0.0 0.0 0.0 0.0 0.0 0.0 0.0 0.0 0.0
alt.obituaries_20041121.1339.txt 0.0 0.0 0.0 0.0 0.0 0.0 1.0 0.0 0.0 0.0
alt.politics.economics_20041206.1835.txt 0.0 0.0 0.0 0.0 0.0 0.0 1.0 0.0 0.0 0.0
alt.politics_20050124.0640.txt 0.0 0.0 0.0 0.0 0.0 0.0 0.0 1.0 0.0 0.0
alt.religion.mormon_20050103.0854.txt 0.0 0.0 0.0 0.0 0.0 0.0 0.0 0.0 1.0 0.0
alt.support.divorce_20050113.2451.txt 0.0 0.0 0.0 0.0 0.0 0.0 0.0 1.0 0.0 0.0
alt.sys.pc-clone.dell_20050226.2350.txt 1.0 0.0 0.0 0.0 0.0 0.0 0.0 0.0 0.0 0.0
alt.vacation.las-vegas_20050109.0133.txt 0.0 0.0 0.0 0.0 0.0 0.0 1.0 0.0 0.0 0.0
APW_ENG_20030304.0555.txt 1.0 0.0 0.0 0.0 0.0 0.0 0.0 0.0 0.0 0.0
APW_ENG_20030306.0191.txt 1.0 0.0 0.0 0.0 0.0 0.0 0.0 0.0 0.0 0.0
APW_ENG_20030308.0314.txt 0.0 0.0 0.0 0.0 0.0 1.0 0.0 0.0 0.0 0.0
APW_ENG_20030310.0719.txt 0.0 0.0 0.0 0.0 0.0 1.0 0.0 0.0 0.0 0.0
APW_ENG_20030311.0775.txt 0.0 0.0 1.0 0.0 0.0 0.0 0.0 0.0 0.0 0.0
APW_ENG_20030318.0689.txt 1.0 0.0 0.0 0.0 0.0 0.0 0.0 0.0 0.0 0.0
APW_ENG_20030319.0545.txt 0.0 0.0 0.0 0.0 0.0 1.0 0.0 0.0 0.0 0.0
APW_ENG_20030322.0119.txt 1.0 0.0 0.0 0.0 0.0 0.0 0.0 0.0 0.0 0.0
APW_ENG_20030324.0768.txt 1.0 0.0 0.0 0.0 0.0 0.0 0.0 0.0 0.0 0.0
APW_ENG_20030325.0786.txt 0.0 0.0 0.0 0.0 0.0 0.0 1.0 0.0 0.0 0.0
APW_ENG_20030326.0190.txt 1.0 0.0 0.0 0.0 0.0 0.0 0.0 0.0 0.0 0.0
APW_ENG_20030327.0376.txt 0.0 0.0 0.0 0.0 1.0 0.0 0.0 0.0 0.0 0.0
APW_ENG_20030331.0410.txt 0.013 0.0 0.0 0.0 0.987 0.0 0.0 0.0 0.0 0.0
APW_ENG_20030403.0862.txt 0.0 0.0 0.0 0.0 1.0 0.0 0.0 0.0 0.0 0.0
APW_ENG_20030404.0439.txt 1.0 0.0 0.0 0.0 0.0 0.0 0.0 0.0 0.0 0.0
APW_ENG_20030406.0191.txt 0.0 0.0 1.0 0.0 0.0 0.0 0.0 0.0 0.0 0.0
APW_ENG_20030407.0030.txt 0.0 0.0 0.0 0.0 1.0 0.0 0.0 0.0 0.0 0.0
APW_ENG_20030408.0090.txt 0.0 0.0 0.0 0.0 0.0 0.0 0.0 0.0 0.0 1.0
APW_ENG_20030409.0013.txt 1.0 0.0 0.0 0.0 0.0 0.0 0.0 0.0 0.0 0.0
APW_ENG_20030410.0906.txt 1.0 0.0 0.0 0.0 0.0 0.0 0.0 0.0 0.0 0.0
APW_ENG_20030411.0304.txt 0.0 0.0 0.0 0.0 1.0 0.0 0.0 0.0 0.0 0.0
APW_ENG_20030412.0531.txt 0.0 0.0 1.0 0.0 0.0 0.0 0.0 0.0 0.0 0.0
APW_ENG_20030414.0392.txt 0.0 0.0 0.0 0.0 0.0 0.0 0.0 1.0 0.0 0.0
APW_ENG_20030415.0742.txt 0.0 0.0 0.0 0.0 1.0 0.0 0.0 0.0 0.0 0.0
APW_ENG_20030416.0581.txt 0.0 0.0 0.0 0.0 1.0 0.0 0.0 0.0 0.0 0.0
APW_ENG_20030417.0555.txt 0.0 0.0 0.0 0.0 0.0 0.0 0.0 0.0 1.0 0.0
APW_ENG_20030418.0084.txt 0.0 0.0 1.0 0.0 0.0 0.0 0.0 0.0 0.0 0.0
APW_ENG_20030419.0358.txt 0.0 0.0 0.0 0.0 0.0 0.0 0.0 0.0 1.0 0.0
APW_ENG_20030422.0469.txt 0.0 0.0 0.0 0.0 0.0 1.0 0.0 0.0 0.0 0.0
APW_ENG_20030422.0485.txt 0.0 0.0 1.0 0.0 0.0 0.0 0.0 0.0 0.0 0.0
APW_ENG_20030423.0079.txt 0.0 0.0 0.0 0.0 0.0 0.0 0.0 1.0 0.0 0.0
APW_ENG_20030424.0532.txt 0.0 0.0 1.0 0.0 0.0 0.0 0.0 0.0 0.0 0.0
APW_ENG_20030424.0698.txt 0.0 0.0 0.0 1.0 0.0 0.0 0.0 0.0 0.0 0.0
APW_ENG_20030502.0470.txt 1.0 0.0 0.0 0.0 0.0 0.0 0.0 0.0 0.0 0.0
APW_ENG_20030502.0686.txt 0.0 0.0 0.0 0.0 0.0 1.0 0.0 0.0 0.0 0.0
APW_ENG_20030508.0772.txt 0.0 0.0 0.0 0.0 0.0 0.0 0.0 0.0 0.0 1.0
APW_ENG_20030510.0228.txt 0.0 0.0 0.0 0.0 0.0 0.0 0.0 0.0 0.0 1.0
APW_ENG_20030513.0139.txt 0.0 0.0 0.0 0.0 0.0 0.0 1.0 0.0 0.0 0.0
APW_ENG_20030519.0367.txt 0.0 0.0 1.0 0.0 0.0 0.0 0.0 0.0 0.0 0.0
APW_ENG_20030519.0548.txt 0.0 0.0 0.0 0.0 1.0 0.0 0.0 0.0 0.0 0.0
APW_ENG_20030520.0081.txt 0.0 0.0 0.0 0.0 1.0 0.0 0.0 0.0 0.0 0.0
APW_ENG_20030520.0757.txt 0.0 0.0 0.0 0.0 0.0 0.0 0.0 0.0 1.0 0.0
APW_ENG_20030527.0232.txt 0.0 0.0 0.0 0.0 0.0 1.0 0.0 0.0 0.0 0.0
APW_ENG_20030602.0037.txt 0.0 0.0 0.0 0.0 0.0 0.0 1.0 0.0 0.0 0.0
APW_ENG_20030603.0303.txt 0.0 0.0 0.0 0.0 0.0 0.0 1.0 0.0 0.0 0.0
APW_ENG_20030610.0010.txt 0.0 0.0 0.0 0.0 0.0 0.0 1.0 0.0 0.0 0.0
APW_ENG_20030610.0554.txt 0.0 0.0 0.0 0.0 0.0 0.0 1.0 0.0 0.0 0.0
APW_ENG_20030619.0383.txt 0.0 0.0 1.0 0.0 0.0 0.0 0.0 0.0 0.0 0.0
aus.cars_20041206.0903.txt 0.0 0.0 0.0 0.0 0.0 0.0 0.0 0.0 1.0 0.0
Austin-Grad-Community_20050212.2454.txt 0.0 0.0 0.0 0.0 0.0 0.0 0.0 1.0 0.0 0.0
BACONSREBELLION_20050123.1639.txt 0.0 1.0 0.0 0.0 0.0 0.0 0.0 0.0 0.0 0.0
BACONSREBELLION_20050125.1108.txt 0.0 0.0 0.0 0.0 0.0 0.0 1.0 0.0 0.0 0.0
BACONSREBELLION_20050127.1017.txt 0.0 0.0 0.0 1.0 0.0 0.0 0.0 0.0 0.0 0.0
BACONSREBELLION_20050204.1326.txt 1.0 0.0 0.0 0.0 0.0 0.0 0.0 0.0 0.0 0.0
BACONSREBELLION_20050205.1919.txt 0.0 0.0 1.0 0.0 0.0 0.0 0.0 0.0 0.0 0.0
BACONSREBELLION_20050206.1345.txt 1.0 0.0 0.0 0.0 0.0 0.0 0.0 0.0 0.0 0.0
BACONSREBELLION_20050209.0721.txt 0.0 0.0 0.0 0.0 0.0 1.0 0.0 0.0 0.0 0.0
BACONSREBELLION_20050210.0728.txt 0.0 0.0 0.0 0.0 0.0 0.0 0.0 1.0 0.0 0.0
BACONSREBELLION_20050214.0944.txt 0.0 0.0 0.0 0.0 0.0 1.0 0.0 0.0 0.0 0.0
BACONSREBELLION_20050216.1536.txt 0.0 0.0 0.0 0.0 0.0 1.0 0.0 0.0 0.0 0.0
BACONSREBELLION_20050216.1618.txt 0.0 0.0 0.0 0.0 0.0 0.0 0.0 0.0 0.0 1.0
BACONSREBELLION_20050216.1632.txt 0.0 0.0 0.0 0.0 1.0 0.0 0.0 0.0 0.0 0.0
BACONSREBELLION_20050217.0744.txt 0.0 1.0 0.0 0.0 0.0 0.0 0.0 0.0 0.0 0.0
BACONSREBELLION_20050218.0848.txt 0.0 0.0 1.0 0.0 0.0 0.0 0.0 0.0 0.0 0.0
BACONSREBELLION_20050218.1214.txt 0.0 0.0 0.0 0.0 0.0 0.0 1.0 0.0 0.0 0.0
BACONSREBELLION_20050222.0817.txt 1.0 0.0 0.0 0.0 0.0 0.0 0.0 0.0 0.0 0.0
BACONSREBELLION_20050222.1348.txt 0.0 0.0 0.0 0.0 0.0 0.0 1.0 0.0 0.0 0.0
BACONSREBELLION_20050226.1317.txt 0.0 0.0 0.0 0.0 0.0 1.0 0.0 0.0 0.0 0.0
BACONSREBELLION_20050227.1238.txt 0.0 0.0 0.0 0.0 1.0 0.0 0.0 0.0 0.0 0.0
CNNHL_ENG_20030304_142751.10.txt 1.0 0.0 0.0 0.0 0.0 0.0 0.0 0.0 0.0 0.0
CNNHL_ENG_20030312_150218.13.txt 0.0 0.0 0.0 0.0 0.0 1.0 0.0 0.0 0.0 0.0
CNNHL_ENG_20030331_193419.9.txt 0.0 0.0 1.0 0.0 0.0 0.0 0.0 0.0 0.0 0.0
CNNHL_ENG_20030402_133449.22.txt 0.0 0.0 0.0 0.0 0.0 1.0 0.0 0.0 0.0 0.0
CNNHL_ENG_20030402_193443.5.txt 0.0 0.0 0.0 0.0 1.0 0.0 0.0 0.0 0.0 0.0
CNNHL_ENG_20030403_133453.21.txt 0.0 0.0 0.0 0.0 0.0 1.0 0.0 0.0 0.0 0.0
CNNHL_ENG_20030403_193455.30.txt 0.0 0.0 0.0 0.0 1.0 0.0 0.0 0.0 0.0 0.0
CNNHL_ENG_20030407_193547.5.txt 0.0 0.0 0.0 0.0 1.0 0.0 0.0 0.0 0.0 0.0
CNNHL_ENG_20030410_193626.13.txt 0.0 0.0 1.0 0.0 0.0 0.0 0.0 0.0 0.0 0.0
CNNHL_ENG_20030411_230640.38.txt 0.0 0.0 0.0 0.0 0.0 0.0 0.0 1.0 0.0 0.0
CNNHL_ENG_20030415_193729.5.txt 0.0 0.0 0.0 0.0 0.0 0.0 0.0 0.0 0.0 1.0
CNNHL_ENG_20030416_133739.13.txt 0.0 1.0 0.0 0.0 0.0 0.0 0.0 0.0 0.0 0.0
CNNHL_ENG_20030416_133739.9.txt 0.0 1.0 0.0 0.0 0.0 0.0 0.0 0.0 0.0 0.0
CNNHL_ENG_20030416_193742.26.txt 0.0 0.0 0.0 0.0 0.0 1.0 0.0 0.0 0.0 0.0
CNNHL_ENG_20030416_193742.7.txt 1.0 0.0 0.0 0.0 0.0 0.0 0.0 0.0 0.0 0.0
CNNHL_ENG_20030416_230741.33.txt 0.0 1.0 0.0 0.0 0.0 0.0 0.0 0.0 0.0 0.0
CNNHL_ENG_20030424_123502.25.txt 0.0 0.0 0.0 0.0 0.0 1.0 0.0 0.0 0.0 0.0
CNNHL_ENG_20030425_183518.12.txt 0.0 0.0 0.0 0.0 1.0 0.0 0.0 0.0 0.0 0.0
CNNHL_ENG_20030428_123600.14.txt 0.0 0.0 0.0 0.0 0.0 0.0 0.0 1.0 0.0 0.0
CNNHL_ENG_20030429_220618.15.txt 0.0 0.0 0.0 0.0 0.0 0.0 0.0 1.0 0.0 0.0
CNNHL_ENG_20030430_220712.37.txt 0.0 0.0 0.0 0.0 1.0 0.0 0.0 0.0 0.0 0.0
CNNHL_ENG_20030505_220734.25.txt 1.0 0.0 0.0 0.0 0.0 0.0 0.0 0.0 0.0 0.0
CNNHL_ENG_20030513_183907.5.txt 0.0 0.0 0.0 0.0 0.0 0.0 0.0 0.0 1.0 0.0
CNNHL_ENG_20030513_220910.11.txt 0.0 0.0 0.0 1.0 0.0 0.0 0.0 0.0 0.0 0.0
CNNHL_ENG_20030513_220910.32.txt 0.0 0.0 0.0 1.0 0.0 0.0 0.0 0.0 0.0 0.0
CNNHL_ENG_20030519_124020.23.txt 0.0 0.0 0.0 0.0 0.0 1.0 0.0 0.0 0.0 0.0
CNNHL_ENG_20030523_221118.14.txt 0.0 0.0 0.933 0.0 0.0 0.0 0.0 0.067 0.0 0.0
CNNHL_ENG_20030526_221156.39.txt 0.0 0.0 0.0 0.0 0.0 0.0 0.0 1.0 0.0 0.0
CNNHL_ENG_20030603_230307.3.txt 1.0 0.0 0.0 0.0 0.0 0.0 0.0 0.0 0.0 0.0
CNNHL_ENG_20030604_230238.5.txt 0.0 0.0 0.0 0.0 0.0 0.0 0.0 0.0 0.0 1.0
CNNHL_ENG_20030609_133335.37.txt 0.0 0.0 0.0 0.0 1.0 0.0 0.0 0.0 0.0 0.0
CNNHL_ENG_20030610_133347.6.txt 1.0 0.0 0.0 0.0 0.0 0.0 0.0 0.0 0.0 0.0
CNNHL_ENG_20030610_230438.14.txt 0.0 1.0 0.0 0.0 0.0 0.0 0.0 0.0 0.0 0.0
CNNHL_ENG_20030611_133445.24.txt 0.0 0.0 0.0 0.0 0.0 1.0 0.0 0.0 0.0 0.0
CNNHL_ENG_20030616_230155.28.txt 0.0 0.0 0.0 0.0 0.0 1.0 0.0 0.0 0.0 0.0
CNNHL_ENG_20030616_230155.7.txt 1.0 0.0 0.0 0.0 0.0 0.0 0.0 0.0 0.0 0.0
CNNHL_ENG_20030618_230303.36.txt 0.0 0.0 0.0 0.0 1.0 0.0 0.0 0.0 0.0 0.0
CNNHL_ENG_20030618_230303.6.txt 0.0 0.0 0.066 0.0 0.0 0.0 0.934 0.0 0.0 0.0
CNNHL_ENG_20030624_133331.33.txt 0.0 0.0 0.0 0.0 0.0 0.0 0.0 0.0 0.0 1.0
CNNHL_ENG_20030624_230338.34.txt 0.0 0.0 0.0 0.0 0.0 0.0 0.0 0.0 0.0 1.0
CNNHL_ENG_20030625_193346.7.txt 0.0 0.0 0.0 0.0 0.0 0.0 0.0 1.0 0.0 0.0
CNNHL_ENG_20030625_230351.4.txt 0.0 0.0 0.0 0.0 0.0 0.0 0.0 1.0 0.0 0.0
CNN_CF_20030303.1900.00.txt 0.0 0.0 0.0 0.0 1.0 0.0 0.0 0.0 0.0 0.0
CNN_CF_20030303.1900.02.txt 0.0 0.0 0.0 0.0 0.0 0.0 0.0 1.0 0.0 0.0
CNN_CF_20030303.1900.05.txt 0.0 0.0 0.0 0.0 0.0 0.0 0.0 0.0 1.0 0.0
CNN_CF_20030303.1900.06-1.txt 1.0 0.0 0.0 0.0 0.0 0.0 0.0 0.0 0.0 0.0
CNN_CF_20030303.1900.06-2.txt 1.0 0.0 0.0 0.0 0.0 0.0 0.0 0.0 0.0 0.0
CNN_CF_20030304.1900.01.txt 0.0 0.0 0.0 0.0 0.0 0.0 1.0 0.0 0.0 0.0
CNN_CF_20030304.1900.02.txt 0.0 0.0 0.0 0.0 1.0 0.0 0.0 0.0 0.0 0.0
CNN_CF_20030304.1900.04.txt 1.0 0.0 0.0 0.0 0.0 0.0 0.0 0.0 0.0 0.0
CNN_CF_20030304.1900.06-2.txt 1.0 0.0 0.0 0.0 0.0 0.0 0.0 0.0 0.0 0.0
CNN_CF_20030305.1900.00-1.txt 1.0 0.0 0.0 0.0 0.0 0.0 0.0 0.0 0.0 0.0
CNN_CF_20030305.1900.00-2.txt 0.0 0.0 0.0 0.0 0.0 0.0 1.0 0.0 0.0 0.0
CNN_CF_20030305.1900.00-3.txt 0.0 0.0 0.0 0.0 0.0 0.0 0.0 0.0 0.0 1.0
CNN_CF_20030305.1900.02.txt 0.0 0.0 0.0 0.0 0.0 0.0 0.0 1.0 0.0 0.0
CNN_CF_20030305.1900.06-1.txt 1.0 0.0 0.0 0.0 0.0 0.0 0.0 0.0 0.0 0.0
CNN_CF_20030305.1900.06-2.txt 1.0 0.0 0.0 0.0 0.0 0.0 0.0 0.0 0.0 0.0
CNN_ENG_20030304_173120.16.txt 1.0 0.0 0.0 0.0 0.0 0.0 0.0 0.0 0.0 0.0
CNN_ENG_20030305_170125.1.txt 0.0 0.0 0.0 0.0 1.0 0.0 0.0 0.0 0.0 0.0
CNN_ENG_20030306_070606.18.txt 0.0 0.0 0.0 0.0 1.0 0.0 0.0 0.0 0.0 0.0
CNN_ENG_20030306_083604.6.txt 1.0 0.0 0.0 0.0 0.0 0.0 0.0 0.0 0.0 0.0
CNN_ENG_20030312_083725.3.txt 0.0 0.0 0.0 0.0 1.0 0.0 0.0 0.0 0.0 0.0
CNN_ENG_20030312_223733.14.txt 0.0 0.0 0.0 1.0 0.0 0.0 0.0 0.0 0.0 0.0
CNN_ENG_20030313_083739.0.txt 0.0 0.0 0.0 0.0 0.0 0.0 0.0 0.0 1.0 0.0
CNN_ENG_20030318_140851.8.txt 0.0 0.0 0.0 0.0 0.0 1.0 0.0 0.0 0.0 0.0
CNN_ENG_20030320_153434.7.txt 0.0 0.0 0.0 0.0 1.0 0.0 0.0 0.0 0.0 0.0
CNN_ENG_20030325_150531.10.txt 0.0 1.0 0.0 0.0 0.0 0.0 0.0 0.0 0.0 0.0
CNN_ENG_20030325_220534.6.txt 0.0 0.0 0.0 0.0 1.0 0.0 0.0 0.0 0.0 0.0
CNN_ENG_20030327_163556.20.txt 0.0 0.0 0.0 0.0 0.0 0.0 0.0 1.0 0.0 0.0
CNN_ENG_20030328_150609.10.txt 1.0 0.0 0.0 0.0 0.0 0.0 0.0 0.0 0.0 0.0
CNN_ENG_20030329_170349.7.txt 1.0 0.0 0.0 0.0 0.0 0.0 0.0 0.0 0.0 0.0
CNN_ENG_20030331_123648.4.txt 0.0 0.0 1.0 0.0 0.0 0.0 0.0 0.0 0.0 0.0
CNN_ENG_20030331_193655.14.txt 0.0 0.0 1.0 0.0 0.0 0.0 0.0 0.0 0.0 0.0
CNN_ENG_20030401_073033.14.txt 0.0 0.0 1.0 0.0 0.0 0.0 0.0 0.0 0.0 0.0
CNN_ENG_20030401_233449.5.txt 0.0 1.0 0.0 0.0 0.0 0.0 0.0 0.0 0.0 0.0
CNN_ENG_20030402_190500.11.txt 0.0 0.0 0.0 0.0 1.0 0.0 0.0 0.0 0.0 0.0
CNN_ENG_20030403_060032.0.txt 1.0 0.0 0.0 0.0 0.0 0.0 0.0 0.0 0.0 0.0
CNN_ENG_20030403_080032.9.txt 1.0 0.0 0.0 0.0 0.0 0.0 0.0 0.0 0.0 0.0
CNN_ENG_20030403_090032.1.txt 0.0 0.0 0.0 0.0 0.0 0.0 0.0 0.0 1.0 0.0
CNN_ENG_20030403_180511.16.txt 0.0 0.0 0.0 0.0 1.0 0.0 0.0 0.0 0.0 0.0
CNN_ENG_20030403_183513.1.txt 0.0 0.0 0.0 0.0 1.0 0.0 0.0 0.0 0.0 0.0
CNN_ENG_20030404_073033.4.txt 0.0 0.0 0.0 0.0 1.0 0.0 0.0 0.0 0.0 0.0
CNN_ENG_20030404_163526.10.txt 0.0 1.0 0.0 0.0 0.0 0.0 0.0 0.0 0.0 0.0
CNN_ENG_20030407_080037.12.txt 0.0 0.918 0.0 0.0 0.0 0.082 0.0 0.0 0.0 0.0
CNN_ENG_20030407_130604.10.txt 0.0 0.0 1.0 0.0 0.0 0.0 0.0 0.0 0.0 0.0
CNN_ENG_20030407_170605.7.txt 1.0 0.0 0.0 0.0 0.0 0.0 0.0 0.0 0.0 0.0
CNN_ENG_20030408_083034.11.txt 1.0 0.0 0.0 0.0 0.0 0.0 0.0 0.0 0.0 0.0
CNN_ENG_20030408_123613.0.txt 0.0 1.0 0.0 0.0 0.0 0.0 0.0 0.0 0.0 0.0
CNN_ENG_20030408_153616.9.txt 1.0 0.0 0.0 0.0 0.0 0.0 0.0 0.0 0.0 0.0
CNN_ENG_20030408_200618.14.txt 0.0 0.0 0.0 0.0 0.0 1.0 0.0 0.0 0.0 0.0
CNN_ENG_20030409_180633.8.txt 0.0 0.0 0.0 0.0 0.0 0.0 1.0 0.0 0.0 0.0
CNN_ENG_20030410_183644.8.txt 1.0 0.0 0.0 0.0 0.0 0.0 0.0 0.0 0.0 0.0
CNN_ENG_20030411_070039.21.txt 1.0 0.0 0.0 0.0 0.0 0.0 0.0 0.0 0.0 0.0
CNN_ENG_20030411_193701.3.txt 0.0 0.0 0.0 1.0 0.0 0.0 0.0 0.0 0.0 0.0
CNN_ENG_20030411_233701.11.txt 0.0 0.0 0.0 0.0 0.0 0.0 1.0 0.0 0.0 0.0
CNN_ENG_20030414_130735.7.txt 0.0 0.0 1.0 0.0 0.0 0.0 0.0 0.0 0.0 0.0
CNN_ENG_20030415_103039.0.txt 0.0 0.0 0.0 0.0 0.0 0.0 1.0 0.0 0.0 0.0
CNN_ENG_20030415_173752.0.txt 0.0 0.0 0.0 0.0 0.0 0.0 0.0 0.0 1.0 0.0
CNN_ENG_20030415_180754.5.txt 0.0 0.0 0.0 0.0 0.0 0.0 0.0 0.0 1.0 0.0
CNN_ENG_20030415_183752.14.txt 1.0 0.0 0.0 0.0 0.0 0.0 0.0 0.0 0.0 0.0
CNN_ENG_20030416_100042.7.txt 1.0 0.0 0.0 0.0 0.0 0.0 0.0 0.0 0.0 0.0
CNN_ENG_20030416_160804.4.txt 0.0 0.0 1.0 0.0 0.0 0.0 0.0 0.0 0.0 0.0
CNN_ENG_20030416_180808.15.txt 0.0 0.0 0.0 0.0 0.0 1.0 0.0 0.0 0.0 0.0
CNN_ENG_20030416_190806.4.txt 1.0 0.0 0.0 0.0 0.0 0.0 0.0 0.0 0.0 0.0
CNN_ENG_20030417_063039.0.txt 0.0 0.0 0.0 0.0 0.0 1.0 0.0 0.0 0.0 0.0
CNN_ENG_20030417_073039.2.txt 0.0 0.0 0.0 0.0 0.0 1.0 0.0 0.0 0.0 0.0
CNN_ENG_20030418_063040.1.txt 1.0 0.0 0.0 0.0 0.0 0.0 0.0 0.0 0.0 0.0
CNN_ENG_20030418_083040.11.txt 0.0 0.0 0.0 0.0 0.0 0.0 0.0 0.0 1.0 0.0
CNN_ENG_20030418_130831.5.txt 1.0 0.0 0.0 0.0 0.0 0.0 0.0 0.0 0.0 0.0
CNN_ENG_20030418_163834.14.txt 0.0 0.0 0.0 0.0 0.0 0.0 0.0 1.0 0.0 0.0
CNN_ENG_20030421_090007.11.txt 0.0 0.0 0.0 1.0 0.0 0.0 0.0 0.0 0.0 0.0
CNN_ENG_20030421_120508.13.txt 0.0 0.0 0.0 0.0 0.0 0.0 0.0 0.0 1.0 0.0
CNN_ENG_20030421_120508.17.txt 0.0 0.0 0.0 0.0 0.0 1.0 0.0 0.0 0.0 0.0
CNN_ENG_20030421_133510.6.txt 0.0 0.0 0.0 0.0 0.0 0.0 0.0 0.0 0.0 1.0
CNN_ENG_20030422_083005.10.txt 0.0 0.0 0.0 0.0 0.0 0.0 1.0 0.0 0.0 0.0
CNN_ENG_20030422_213527.4.txt 0.0 1.0 0.0 0.0 0.0 0.0 0.0 0.0 0.0 0.0
CNN_ENG_20030423_180539.2.txt 0.0 1.0 0.0 0.0 0.0 0.0 0.0 0.0 0.0 0.0
CNN_ENG_20030424_070008.15.txt 0.0 0.0 0.0 0.0 0.0 0.0 0.024 0.976 0.0 0.0
CNN_ENG_20030424_073006.4.txt 0.0 0.0 0.0 0.0 0.0 1.0 0.0 0.0 0.0 0.0
CNN_ENG_20030424_113549.11.txt 1.0 0.0 0.0 0.0 0.0 0.0 0.0 0.0 0.0 0.0
CNN_ENG_20030424_173553.8.txt 0.0 0.0 0.0 1.0 0.0 0.0 0.0 0.0 0.0 0.0
CNN_ENG_20030424_183556.7.txt 1.0 0.0 0.0 0.0 0.0 0.0 0.0 0.0 0.0 0.0
CNN_ENG_20030425_063006.5.txt 0.0 0.0 0.0 0.0 0.0 1.0 0.0 0.0 0.0 0.0
CNN_ENG_20030425_133605.6.txt 0.0 0.0 1.0 0.0 0.0 0.0 0.0 0.0 0.0 0.0
CNN_ENG_20030426_160621.0.txt 0.0 0.0 1.0 0.0 0.0 0.0 0.0 0.0 0.0 0.0
CNN_ENG_20030428_130651.4.txt 0.0 0.0 0.0 0.0 0.0 0.0 0.0 0.0 1.0 0.0
CNN_ENG_20030428_173654.13.txt 0.0 0.0 0.0 1.0 0.0 0.0 0.0 0.0 0.0 0.0
CNN_ENG_20030428_193655.2.txt 0.0 0.0 1.0 0.0 0.0 0.0 0.0 0.0 0.0 0.0
CNN_ENG_20030429_083016.5.txt 0.0 0.0 1.0 0.0 0.0 0.0 0.0 0.0 0.0 0.0
CNN_ENG_20030429_110706.7.txt 0.0 0.0 0.0 0.0 1.0 0.0 0.0 0.0 0.0 0.0
CNN_ENG_20030429_143706.14.txt 0.0 0.0 0.0 0.0 0.0 1.0 0.0 0.0 0.0 0.0
CNN_ENG_20030429_170710.4.txt 0.0 0.0 0.0 0.0 0.0 0.0 0.0 0.0 1.0 0.0
CNN_ENG_20030429_190711.14.txt 1.0 0.0 0.0 0.0 0.0 0.0 0.0 0.0 0.0 0.0
CNN_ENG_20030430_063016.14.txt 0.0 1.0 0.0 0.0 0.0 0.0 0.0 0.0 0.0 0.0
CNN_ENG_20030430_093016.0.txt 1.0 0.0 0.0 0.0 0.0 0.0 0.0 0.0 0.0 0.0
CNN_ENG_20030430_160723.6.txt 0.0 0.0 0.0 0.0 0.0 0.0 0.0 0.0 1.0 0.0
CNN_ENG_20030501_063017.15.txt 0.0 0.0 0.0 0.0 0.0 0.0 1.0 0.0 0.0 0.0
CNN_ENG_20030501_160459.0.txt 0.0 0.0 1.0 0.0 0.0 0.0 0.0 0.0 0.0 0.0
CNN_ENG_20030502_080020.7.txt 0.0 0.0 0.0 0.0 0.0 1.0 0.0 0.0 0.0 0.0
CNN_ENG_20030502_093018.6.txt 1.0 0.0 0.0 0.0 0.0 0.0 0.0 0.0 0.0 0.0
CNN_ENG_20030505_090022.1.txt 0.0 0.0 0.0 0.0 0.0 0.0 0.0 1.0 0.0 0.0
CNN_ENG_20030506_053020.14.txt 0.0 0.0 0.0 0.0 0.0 0.0 1.0 0.0 0.0 0.0
CNN_ENG_20030506_160524.18.txt 0.0 0.0 0.0 0.0 0.0 0.0 0.0 1.0 0.0 0.0
CNN_ENG_20030506_163523.22.txt 0.0 0.0 0.0 0.0 0.0 0.0 0.0 0.0 1.0 0.0
CNN_ENG_20030507_060023.1.txt 0.0 0.0 0.0 0.0 0.0 0.0 0.0 0.0 0.0 1.0
CNN_ENG_20030507_160538.15.txt 0.0 0.0 0.0 0.0 1.0 0.0 0.0 0.0 0.0 0.0
CNN_ENG_20030507_170539.0.txt 0.0 0.0 1.0 0.0 0.0 0.0 0.0 0.0 0.0 0.0
CNN_ENG_20030508_170552.18.txt 1.0 0.0 0.0 0.0 0.0 0.0 0.0 0.0 0.0 0.0
CNN_ENG_20030508_210555.5.txt 0.0 0.0 0.0 0.0 0.0 0.0 0.0 0.0 1.0 0.0
CNN_ENG_20030509_090025.5.txt 1.0 0.0 0.0 0.0 0.0 0.0 0.0 0.0 0.0 0.0
CNN_ENG_20030509_123601.13.txt 0.0 0.0 0.0 0.0 0.0 0.0 1.0 0.0 0.0 0.0
CNN_ENG_20030512_170454.13.txt 0.0 0.0 0.0 0.0 0.0 0.0 1.0 0.0 0.0 0.0
CNN_ENG_20030512_190454.7.txt 0.0 0.0 0.0 0.0 0.0 0.0 0.0 1.0 0.0 0.0
CNN_ENG_20030513_080020.2.txt 0.0 1.0 0.0 0.0 0.0 0.0 0.0 0.0 0.0 0.0
CNN_ENG_20030513_113501.6.txt 0.0 0.0 0.0 0.0 0.0 0.0 0.0 0.0 1.0 0.0
CNN_ENG_20030513_160506.16.txt 1.0 0.0 0.0 0.0 0.0 0.0 0.0 0.0 0.0 0.0
CNN_ENG_20030514_130518.5.txt 0.0 0.0 0.0 0.0 0.0 0.0 0.0 1.0 0.0 0.0
CNN_ENG_20030515_063019.6.txt 0.0 0.0 0.0 1.0 0.0 0.0 0.0 0.0 0.0 0.0
CNN_ENG_20030515_073019.7.txt 0.0 0.0 0.0 0.0 0.0 0.0 0.0 0.0 1.0 0.0
CNN_ENG_20030515_193533.6.txt 0.0 0.0 0.0 0.0 0.0 0.0 1.0 0.0 0.0 0.0
CNN_ENG_20030516_090022.7.txt 1.0 0.0 0.0 0.0 0.0 0.0 0.0 0.0 0.0 0.0
CNN_ENG_20030516_123543.8.txt 0.0 0.0 1.0 0.0 0.0 0.0 0.0 0.0 0.0 0.0
CNN_ENG_20030524_143511.4.txt 0.0 0.0 0.0 0.0 1.0 0.0 0.0 0.0 0.0 0.0
CNN_ENG_20030525_143522.8.txt 1.0 0.0 0.0 0.0 0.0 0.0 0.0 0.0 0.0 0.0
CNN_ENG_20030525_160525.13.txt 0.0 0.0 0.0 0.0 0.0 1.0 0.0 0.0 0.0 0.0
CNN_ENG_20030526_133535.4.txt 0.0 1.0 0.0 0.0 0.0 0.0 0.0 0.0 0.0 0.0
CNN_ENG_20030526_180540.6.txt 0.0 0.0 1.0 0.0 0.0 0.0 0.0 0.0 0.0 0.0
CNN_ENG_20030526_183538.3.txt 0.0 0.0 1.0 0.0 0.0 0.0 0.0 0.0 0.0 0.0
CNN_ENG_20030527_195948.3.txt 1.0 0.0 0.0 0.0 0.0 0.0 0.0 0.0 0.0 0.0
CNN_ENG_20030527_215946.12.txt 0.0 0.0 0.0 0.0 0.0 0.0 0.0 0.0 1.0 0.0
CNN_ENG_20030528_082823.9.txt 0.0 0.0 0.0 0.0 0.0 0.0 0.0 1.0 0.0 0.0
CNN_ENG_20030528_125956.8.txt 0.0 0.0 0.0 0.0 0.0 0.0 1.0 0.0 0.0 0.0
CNN_ENG_20030528_165958.16.txt 0.0 0.0 0.0 0.0 1.0 0.0 0.0 0.0 0.0 0.0
CNN_ENG_20030528_172957.18.txt 0.0 0.0 0.0 0.0 0.0 0.0 0.0 0.0 1.0 0.0
CNN_ENG_20030528_195959.20.txt 1.0 0.0 0.0 0.0 0.0 0.0 0.0 0.0 0.0 0.0
CNN_ENG_20030529_085826.10.txt 0.0 0.0 1.0 0.0 0.0 0.0 0.0 0.0 0.0 0.0
CNN_ENG_20030529_130011.6.txt 0.0 0.0 1.0 0.0 0.0 0.0 0.0 0.0 0.0 0.0
CNN_ENG_20030530_130025.12.txt 1.0 0.0 0.0 0.0 0.0 0.0 0.0 0.0 0.0 0.0
CNN_ENG_20030602_072826.1.txt 1.0 0.0 0.0 0.0 0.0 0.0 0.0 0.0 0.0 0.0
CNN_ENG_20030602_102826.13.txt 0.0 0.0 0.0 1.0 0.0 0.0 0.0 0.0 0.0 0.0
CNN_ENG_20030602_105829.2.txt 0.0 0.0 0.0 0.0 0.0 0.0 0.0 0.0 1.0 0.0
CNN_ENG_20030602_133012.9.txt 0.0 0.0 0.0 0.0 0.0 0.0 1.0 0.0 0.0 0.0
CNN_ENG_20030603_095830.17.txt 0.0 0.0 1.0 0.0 0.0 0.0 0.0 0.0 0.0 0.0
CNN_ENG_20030603_133025.7.txt 1.0 0.0 0.0 0.0 0.0 0.0 0.0 0.0 0.0 0.0
CNN_ENG_20030604_092828.7.txt 0.0 0.0 0.0 1.0 0.0 0.0 0.0 0.0 0.0 0.0
CNN_ENG_20030604_102828.6.txt 0.0 0.0 0.0 0.0 0.0 1.0 0.0 0.0 0.0 0.0
CNN_ENG_20030605_065831.18.txt 1.0 0.0 0.0 0.0 0.0 0.0 0.0 0.0 0.0 0.0
CNN_ENG_20030605_085831.13.txt 0.0 0.0 0.0 0.0 0.0 1.0 0.0 0.0 0.0 0.0
CNN_ENG_20030605_105831.11.txt 0.0 0.0 0.0 0.0 0.0 1.0 0.0 0.0 0.0 0.0
CNN_ENG_20030605_153000.9.txt 1.0 0.0 0.0 0.0 0.0 0.0 0.0 0.0 0.0 0.0
CNN_ENG_20030605_193002.8.txt 1.0 0.0 0.0 0.0 0.0 0.0 0.0 0.0 0.0 0.0
CNN_ENG_20030605_223004.4.txt 0.0 0.0 1.0 0.0 0.0 0.0 0.0 0.0 0.0 0.0
CNN_ENG_20030607_170312.6.txt 0.0 0.0 0.0 0.0 0.0 0.0 1.0 0.0 0.0 0.0
CNN_ENG_20030607_173310.4.txt 0.0 0.0 0.0 0.0 0.0 0.0 0.0 1.0 0.0 0.0
CNN_ENG_20030610_085833.10.txt 0.0 0.0 0.0 0.0 1.0 0.0 0.0 0.0 0.0 0.0
CNN_ENG_20030610_095857.4.txt 1.0 0.0 0.0 0.0 0.0 0.0 0.0 0.0 0.0 0.0
CNN_ENG_20030610_105832.1.txt 0.0 0.0 0.0 0.0 0.0 1.0 0.0 0.0 0.0 0.0
CNN_ENG_20030610_123040.9.txt 0.0 0.0 0.0 0.0 0.0 0.0 0.0 0.0 0.0 1.0
CNN_ENG_20030610_130042.17.txt 0.0 1.0 0.0 0.0 0.0 0.0 0.0 0.0 0.0 0.0
CNN_ENG_20030610_133041.17.txt 0.0 0.0 0.0 0.0 0.0 0.0 1.0 0.0 0.0 0.0
CNN_ENG_20030611_102832.3.txt 0.0 0.0 0.0 0.0 0.0 0.0 0.0 0.0 0.0 1.0
CNN_ENG_20030611_102832.4.txt 0.0 0.0 0.0 0.0 0.0 1.0 0.0 0.0 0.0 0.0
CNN_ENG_20030611_175950.5.txt 0.0 0.0 1.0 0.0 0.0 0.0 0.0 0.0 0.0 0.0
CNN_ENG_20030612_072835.2.txt 0.0 0.0 0.0 0.0 0.0 0.0 0.0 0.0 1.0 0.0
CNN_ENG_20030612_160005.13.txt 0.0 0.0 0.0 0.0 0.0 0.0 1.0 0.0 0.0 0.0
CNN_ENG_20030612_173004.10.txt 0.0 1.0 0.0 0.0 0.0 0.0 0.0 0.0 0.0 0.0
CNN_ENG_20030612_173004.2.txt 0.0 0.0 0.0 0.0 0.0 0.0 1.0 0.0 0.0 0.0
CNN_ENG_20030614_173123.4.txt 0.0 0.0 0.008 0.0 0.0 0.0 0.0 0.0 0.0 0.992
CNN_ENG_20030616_130059.25.txt 0.0 0.0 0.0 0.0 1.0 0.0 0.0 0.0 0.0 0.0
CNN_ENG_20030617_065838.21.txt 1.0 0.0 0.0 0.0 0.0 0.0 0.0 0.0 0.0 0.0
CNN_ENG_20030617_105836.4.txt 0.0 0.0 0.0 0.0 0.0 0.0 0.0 1.0 0.0 0.0
CNN_ENG_20030617_112838.4.txt 1.0 0.0 0.0 0.0 0.0 0.0 0.0 0.0 0.0 0.0
CNN_ENG_20030617_173115.14.txt 0.0 0.0 0.0 0.0 0.0 0.0 1.0 0.0 0.0 0.0
CNN_ENG_20030617_173115.22.txt 0.0 0.0 0.0 0.0 0.0 0.0 1.0 0.0 0.0 0.0
CNN_ENG_20030617_193116.10.txt 0.0 0.0 0.0 0.0 0.0 0.0 0.0 1.0 0.0 0.0
CNN_ENG_20030618_065839.11.txt 0.0 0.0 1.0 0.0 0.0 0.0 0.0 0.0 0.0 0.0
CNN_ENG_20030618_150128.5.txt 0.0 1.0 0.0 0.0 0.0 0.0 0.0 0.0 0.0 0.0
CNN_ENG_20030618_150128.6.txt 0.0 0.0 1.0 0.0 0.0 0.0 0.0 0.0 0.0 0.0
CNN_ENG_20030618_193127.17.txt 1.0 0.0 0.0 0.0 0.0 0.0 0.0 0.0 0.0 0.0
CNN_ENG_20030619_115954.10.txt 0.0 0.0 0.0 0.0 0.0 0.0 0.0 0.0 1.0 0.0
CNN_ENG_20030619_115954.4.txt 0.0 0.0 1.0 0.0 0.0 0.0 0.0 0.0 0.0 0.0
CNN_ENG_20030619_125955.10.txt 0.0 0.0 0.0 0.0 0.0 1.0 0.0 0.0 0.0 0.0
CNN_ENG_20030620_085840.7.txt 0.0 0.0 0.0 1.0 0.0 0.0 0.0 0.0 0.0 0.0
CNN_ENG_20030620_095840.4.txt 0.0 0.0 0.0 0.0 0.0 0.0 0.0 0.0 1.0 0.0
CNN_ENG_20030620_170011.14.txt 0.0 0.0 0.0 0.0 0.0 0.0 1.0 0.0 0.0 0.0
CNN_ENG_20030621_115841.16.txt 0.0 0.0 0.0 0.0 0.0 0.0 0.0 1.0 0.0 0.0
CNN_ENG_20030621_160254.25.txt 0.0 0.0 0.0 0.0 0.0 0.0 0.0 1.0 0.0 0.0
CNN_ENG_20030622_173306.9.txt 1.0 0.0 0.0 0.0 0.0 0.0 0.0 0.0 0.0 0.0
CNN_ENG_20030624_065843.24.txt 1.0 0.0 0.0 0.0 0.0 0.0 0.0 0.0 0.0 0.0
CNN_ENG_20030624_082841.12.txt 1.0 0.0 0.0 0.0 0.0 0.0 0.0 0.0 0.0 0.0
CNN_ENG_20030624_140104.22.txt 0.0 0.0 0.0 0.0 0.0 0.0 1.0 0.0 0.0 0.0
CNN_ENG_20030624_153103.16.txt 0.0 0.0 0.0 0.0 1.0 0.0 0.0 0.0 0.0 0.0
CNN_ENG_20030624_153103.17.txt 0.0 0.0 0.0 0.0 0.0 0.0 0.0 1.0 0.0 0.0
CNN_ENG_20030625_210122.0.txt 0.0 0.0 0.0 1.0 0.0 0.0 0.0 0.0 0.0 0.0
CNN_ENG_20030625_220123.3.txt 0.0 0.0 0.0 0.0 0.0 0.0 0.0 0.0 1.0 0.0
CNN_ENG_20030626_193133.8.txt 0.0 1.0 0.0 0.0 0.0 0.0 0.0 0.0 0.0 0.0
CNN_ENG_20030626_203133.11.txt 0.0 0.0 0.0 1.0 0.0 0.0 0.0 0.0 0.0 0.0
CNN_ENG_20030627_065846.3.txt 0.0 0.0 0.0 0.0 0.0 0.0 0.0 1.0 0.0 0.0
CNN_ENG_20030627_130145.6.txt 0.0 1.0 0.0 0.0 0.0 0.0 0.0 0.0 0.0 0.0
CNN_ENG_20030630_075848.7.txt 0.0 0.0 0.0 1.0 0.0 0.0 0.0 0.0 0.0 0.0
CNN_ENG_20030630_085848.18.txt 0.0 0.0 0.0 0.0 1.0 0.0 0.0 0.0 0.0 0.0
CNN_IP_20030328.1600.07.txt 0.0 0.0 0.0 0.0 1.0 0.0 0.0 0.0 0.0 0.0
CNN_IP_20030329.1600.00-2.txt 0.0 0.0 0.0 0.0 1.0 0.0 0.0 0.0 0.0 0.0
CNN_IP_20030329.1600.00-3.txt 0.0 0.0 0.0 0.0 1.0 0.0 0.0 0.0 0.0 0.0
CNN_IP_20030329.1600.00-4.txt 1.0 0.0 0.0 0.0 0.0 0.0 0.0 0.0 0.0 0.0
CNN_IP_20030329.1600.00-5.txt 0.0 0.0 0.0 0.0 1.0 0.0 0.0 0.0 0.0 0.0
CNN_IP_20030329.1600.00-6.txt 1.0 0.0 0.0 0.0 0.0 0.0 0.0 0.0 0.0 0.0
CNN_IP_20030329.1600.01-1.txt 1.0 0.0 0.0 0.0 0.0 0.0 0.0 0.0 0.0 0.0
CNN_IP_20030329.1600.01-3.txt 0.994 0.0 0.006 0.0 0.0 0.0 0.0 0.0 0.0 0.0
CNN_IP_20030329.1600.02.txt 1.0 0.0 0.0 0.0 0.0 0.0 0.0 0.0 0.0 0.0
CNN_IP_20030330.1600.05-2.txt 0.0 0.0 0.0 0.0 0.0 1.0 0.0 0.0 0.0 0.0
CNN_IP_20030330.1600.06.txt 0.0 0.0 0.0 0.0 1.0 0.0 0.0 0.0 0.0 0.0
CNN_IP_20030402.1600.00-1.txt 0.0 0.0 0.0 0.0 1.0 0.0 0.0 0.0 0.0 0.0
CNN_IP_20030402.1600.00-2.txt 0.0 0.0 0.999 0.0 0.001 0.0 0.0 0.0 0.0 0.0
CNN_IP_20030402.1600.00-3.txt 0.0 0.0 0.0 0.0 1.0 0.0 0.0 0.0 0.0 0.0
CNN_IP_20030402.1600.00-4.txt 1.0 0.0 0.0 0.0 0.0 0.0 0.0 0.0 0.0 0.0
CNN_IP_20030402.1600.02-1.txt 0.0 0.0 0.0 0.0 1.0 0.0 0.0 0.0 0.0 0.0
CNN_IP_20030402.1600.02-2.txt 1.0 0.0 0.0 0.0 0.0 0.0 0.0 0.0 0.0 0.0
CNN_IP_20030403.1600.00-1.txt 0.0 0.0 0.0 0.0 1.0 0.0 0.0 0.0 0.0 0.0
CNN_IP_20030403.1600.00-2.txt 0.0 0.0 0.0 0.0 0.0 0.0 0.0 0.0 1.0 0.0
CNN_IP_20030403.1600.00-3.txt 1.0 0.0 0.0 0.0 0.0 0.0 0.0 0.0 0.0 0.0
CNN_IP_20030403.1600.00-4.txt 1.0 0.0 0.0 0.0 0.0 0.0 0.0 0.0 0.0 0.0
CNN_IP_20030404.1600.00-1.txt 0.0 0.0 0.0 0.0 1.0 0.0 0.0 0.0 0.0 0.0
CNN_IP_20030404.1600.00-2.txt 0.0 0.0 0.0 0.0 1.0 0.0 0.0 0.0 0.0 0.0
CNN_IP_20030405.1600.00-2.txt 0.0 1.0 0.0 0.0 0.0 0.0 0.0 0.0 0.0 0.0
CNN_IP_20030405.1600.00-3.txt 0.0 0.0 0.0 0.0 0.0 1.0 0.0 0.0 0.0 0.0
CNN_IP_20030405.1600.01-1.txt 0.0 0.0 0.0 0.0 1.0 0.0 0.0 0.0 0.0 0.0
CNN_IP_20030405.1600.01-2.txt 1.0 0.0 0.0 0.0 0.0 0.0 0.0 0.0 0.0 0.0
CNN_IP_20030405.1600.01-3.txt 0.0 1.0 0.0 0.0 0.0 0.0 0.0 0.0 0.0 0.0
CNN_IP_20030405.1600.02.txt 0.0 0.0 0.0 0.0 1.0 0.0 0.0 0.0 0.0 0.0
CNN_IP_20030406.1600.03.txt 0.0 0.0 0.0 0.0 1.0 0.0 0.0 0.0 0.0 0.0
CNN_IP_20030407.1600.05.txt 1.0 0.0 0.0 0.0 0.0 0.0 0.0 0.0 0.0 0.0
CNN_IP_20030408.1600.03.txt 0.0 0.0 0.0 0.0 1.0 0.0 0.0 0.0 0.0 0.0
CNN_IP_20030408.1600.04.txt 0.0 0.0 0.0 0.0 1.0 0.0 0.0 0.0 0.0 0.0
CNN_IP_20030409.1600.02.txt 0.0 0.0 0.0 0.0 0.0 0.0 0.0 1.0 0.0 0.0
CNN_IP_20030409.1600.04.txt 0.0 0.0 0.0 0.0 0.0 1.0 0.0 0.0 0.0 0.0
CNN_IP_20030410.1600.03-1.txt 0.0 0.0 0.0 0.0 1.0 0.0 0.0 0.0 0.0 0.0
CNN_IP_20030410.1600.03-2.txt 0.0 0.0 0.0 0.0 1.0 0.0 0.0 0.0 0.0 0.0
CNN_IP_20030412.1600.03.txt 1.0 0.0 0.0 0.0 0.0 0.0 0.0 0.0 0.0 0.0
CNN_IP_20030412.1600.05.txt 0.0 0.0 0.0 0.0 1.0 0.0 0.0 0.0 0.0 0.0
CNN_IP_20030414.1600.04.txt 0.0 0.0 0.0 0.0 0.0 1.0 0.0 0.0 0.0 0.0
CNN_IP_20030417.1600.06.txt 0.0 1.0 0.0 0.0 0.0 0.0 0.0 0.0 0.0 0.0
CNN_IP_20030422.1600.05.txt 0.0 0.0 0.0 0.0 0.0 0.0 1.0 0.0 0.0 0.0
CNN_LE_20030504.1200.01.txt 0.0 0.0 0.0 0.0 1.0 0.0 0.0 0.0 0.0 0.0
CNN_LE_20030504.1200.02-1.txt 1.0 0.0 0.0 0.0 0.0 0.0 0.0 0.0 0.0 0.0
CNN_LE_20030504.1200.02-2.txt 1.0 0.0 0.0 0.0 0.0 0.0 0.0 0.0 0.0 0.0
FLOPPINGACES_20041113.1528.042.txt 0.0 0.0 0.0 0.0 0.0 1.0 0.0 0.0 0.0 0.0
FLOPPINGACES_20041114.1240.039.txt 0.0 0.0 0.0 0.0 0.0 0.0 1.0 0.0 0.0 0.0
FLOPPINGACES_20041115.1613.032.txt 0.0 0.0 0.0 0.0 0.0 0.0 1.0 0.0 0.0 0.0
FLOPPINGACES_20041116.0833.027.txt 0.0 0.0 0.0 0.0 0.0 0.0 0.0 1.0 0.0 0.0
FLOPPINGACES_20041117.2002.024.txt 0.0 1.0 0.0 0.0 0.0 0.0 0.0 0.0 0.0 0.0
FLOPPINGACES_20041228.0927.010.txt 0.0 0.0 0.0 0.0 0.0 0.0 0.0 1.0 0.0 0.0
FLOPPINGACES_20041230.1844.003.txt 0.0 0.0 0.0 1.0 0.0 0.0 0.0 0.0 0.0 0.0
FLOPPINGACES_20050101.2244.048.txt 1.0 0.0 0.0 0.0 0.0 0.0 0.0 0.0 0.0 0.0
FLOPPINGACES_20050203.1953.038.txt 1.0 0.0 0.0 0.0 0.0 0.0 0.0 0.0 0.0 0.0
FLOPPINGACES_20050217.1237.014.txt 0.0 1.0 0.0 0.0 0.0 0.0 0.0 0.0 0.0 0.0
fsh_29097.txt 0.0 0.0 0.0 0.0 0.0 0.0 0.0 1.0 0.0 0.0
fsh_29105.txt 0.0 0.0 0.0 0.0 0.0 0.0 0.0 1.0 0.0 0.0
fsh_29121.txt 0.0 0.0 0.0 0.0 1.0 0.0 0.0 0.0 0.0 0.0
fsh_29138.txt 0.0 0.0 0.0 1.0 0.0 0.0 0.0 0.0 0.0 0.0
fsh_29139.txt 0.0 0.0 0.0 0.0 0.0 0.0 1.0 0.0 0.0 0.0
fsh_29141.txt 0.0 0.0 0.0 1.0 0.0 0.0 0.0 0.0 0.0 0.0
fsh_29171.txt 0.0 1.0 0.0 0.0 0.0 0.0 0.0 0.0 0.0 0.0
fsh_29187.txt 0.0 0.0 0.0 0.0 0.0 0.0 0.0 1.0 0.0 0.0
fsh_29191.txt 0.0 0.0 0.0 0.0 0.0 0.0 0.0 1.0 0.0 0.0
fsh_29192.txt 0.0 0.0 0.0 0.0 0.0 0.0 0.0 1.0 0.0 0.0
fsh_29195.txt 0.0 0.0 0.0 0.0 0.0 0.0 0.0 1.0 0.0 0.0
fsh_29226.txt 0.0 0.0 0.0 0.0 0.0 0.0 1.0 0.0 0.0 0.0
fsh_29272.txt 0.0 0.0 0.0 0.0 0.0 0.0 0.0 1.0 0.0 0.0
fsh_29302.txt 1.0 0.0 0.0 0.0 0.0 0.0 0.0 0.0 0.0 0.0
fsh_29303.txt 0.0 0.0 0.0 0.0 0.0 0.0 0.0 1.0 0.0 0.0
fsh_29326.txt 1.0 0.0 0.0 0.0 0.0 0.0 0.0 0.0 0.0 0.0
fsh_29336.txt 0.0 0.0 0.0 0.0 0.0 0.0 0.0 1.0 0.0 0.0
fsh_29344.txt 0.0 0.0 0.0 0.0 0.0 0.0 0.0 1.0 0.0 0.0
fsh_29348.txt 0.0 0.0 0.0 0.0 0.0 0.0 0.0 1.0 0.0 0.0
fsh_29350.txt 0.0 0.0 0.0 0.0 0.0 0.0 0.0 1.0 0.0 0.0
fsh_29361.txt 0.0 0.0 0.0 0.0 0.0 0.0 0.0 1.0 0.0 0.0
fsh_29388.txt 0.0 0.0 0.0 0.0 0.0 0.0 0.0 1.0 0.0 0.0
fsh_29395.txt 0.0 0.0 0.0 0.0 0.0 0.0 0.0 1.0 0.0 0.0
fsh_29505.txt 0.0 0.0 0.0 0.0 0.0 0.0 1.0 0.0 0.0 0.0
fsh_29520.txt 0.0 0.0 0.0 0.0 0.0 0.0 0.0 1.0 0.0 0.0
fsh_29521.txt 0.0 0.0 0.0 0.0 0.0 0.0 0.0 0.0 1.0 0.0
fsh_29526.txt 0.0 0.0 0.0 0.0 0.0 0.0 0.0 1.0 0.0 0.0
fsh_29581_1.txt 1.0 0.0 0.0 0.0 0.0 0.0 0.0 0.0 0.0 0.0
fsh_29586.txt 0.0 0.0 0.0 0.0 0.0 0.0 0.0 1.0 0.0 0.0
fsh_29592.txt 0.0 0.0 0.0 0.0 0.0 0.0 0.0 1.0 0.0 0.0
fsh_29601.txt 1.0 0.0 0.0 0.0 0.0 0.0 0.0 0.0 0.0 0.0
fsh_29622.txt 0.0 1.0 0.0 0.0 0.0 0.0 0.0 0.0 0.0 0.0
fsh_29628.txt 0.0 0.0 0.0 0.0 0.0 0.0 0.0 1.0 0.0 0.0
fsh_29630.txt 0.0 0.0 0.0 0.0 0.0 0.0 1.0 0.0 0.0 0.0
fsh_29770.txt 0.0 1.0 0.0 0.0 0.0 0.0 0.0 0.0 0.0 0.0
fsh_29774.txt 0.0 0.0 0.0 0.0 0.0 0.0 0.0 1.0 0.0 0.0
fsh_29782_2.txt 0.0 0.0 0.0 0.0 0.0 0.0 0.0 1.0 0.0 0.0
fsh_29783.txt 1.0 0.0 0.0 0.0 0.0 0.0 0.0 0.0 0.0 0.0
fsh_29786.txt 0.0 0.0 0.0 0.0 0.0 0.0 0.0 1.0 0.0 0.0
GETTINGPOLITICAL_20050105.0127.001.txt 0.0 0.0 1.0 0.0 0.0 0.0 0.0 0.0 0.0 0.0
HEALINGIRAQ_20041108.1942.05.txt 0.0 0.0 0.0 0.0 1.0 0.0 0.0 0.0 0.0 0.0
Integritas-Group-Community-Forum_20050110.0557.txt 1.0 0.0 0.0 0.0 0.0 0.0 0.0 0.0 0.0 0.0
marcellapr_20050211.2013.txt 0.0 0.0 0.0 0.0 0.0 0.0 1.0 0.0 0.0 0.0
marcellapr_20050228.2219.txt 1.0 0.0 0.0 0.0 0.0 0.0 0.0 0.0 0.0 0.0
MARKBACKER_20041103.1300.txt 1.0 0.0 0.0 0.0 0.0 0.0 0.0 0.0 0.0 0.0
MARKBACKER_20041108.1507.txt 0.0 0.0 0.0 0.0 0.0 0.0 0.0 0.0 1.0 0.0
MARKBACKER_20041112.0707.txt 0.0 1.0 0.0 0.0 0.0 0.0 0.0 0.0 0.0 0.0
MARKBACKER_20041117.0723.txt 1.0 0.0 0.0 0.0 0.0 0.0 0.0 0.0 0.0 0.0
MARKBACKER_20041117.1107.txt 0.0 0.0 0.0 0.0 0.0 0.0 1.0 0.0 0.0 0.0
MARKBACKER_20041119.1002.txt 1.0 0.0 0.0 0.0 0.0 0.0 0.0 0.0 0.0 0.0
MARKBACKER_20041128.1641.txt 0.0 1.0 0.0 0.0 0.0 0.0 0.0 0.0 0.0 0.0
MARKBACKER_20041202.0711.txt 0.0 0.0 0.0 0.0 0.0 0.0 1.0 0.0 0.0 0.0
MARKBACKER_20041206.0733.txt 0.0 1.0 0.0 0.0 0.0 0.0 0.0 0.0 0.0 0.0
MARKBACKER_20041216.0656.txt 0.0 0.0 0.0 0.0 0.0 0.0 1.0 0.0 0.0 0.0
MARKBACKER_20041217.1639.txt 0.0 0.0 0.0 0.0 0.0 0.0 0.0 1.0 0.0 0.0
MARKBACKER_20041220.0919.txt 1.0 0.0 0.0 0.0 0.0 0.0 0.0 0.0 0.0 0.0
MARKBACKER_20050103.0829.txt 0.0 0.0 0.0 0.0 0.0 0.0 0.0 0.0 1.0 0.0
MARKBACKER_20050105.1526.txt 0.0 1.0 0.0 0.0 0.0 0.0 0.0 0.0 0.0 0.0
MARKBACKER_20050105.1632.txt 0.0 0.0 0.0 0.0 1.0 0.0 0.0 0.0 0.0 0.0
MARKBACKER_20050217.0647.txt 1.0 0.0 0.0 0.0 0.0 0.0 0.0 0.0 0.0 0.0
MARKETVIEW_20041209.1401.txt 0.0 0.0 0.0 0.0 1.0 0.0 0.0 0.0 0.0 0.0
MARKETVIEW_20041211.1845.txt 0.0 0.0 0.0 0.0 0.0 0.0 1.0 0.0 0.0 0.0
MARKETVIEW_20041212.1447.txt 0.0 0.0 0.0 0.0 0.0 0.0 1.0 0.0 0.0 0.0
MARKETVIEW_20041213.0722.txt 1.0 0.0 0.0 0.0 0.0 0.0 0.0 0.0 0.0 0.0
MARKETVIEW_20041215.2128.txt 0.0 0.0 0.0 0.0 0.0 1.0 0.0 0.0 0.0 0.0
MARKETVIEW_20041217.0801.txt 0.0 0.0 0.0 0.0 0.0 0.0 0.0 0.0 1.0 0.0
MARKETVIEW_20041219.1509.txt 0.0 0.0 0.0 0.0 1.0 0.0 0.0 0.0 0.0 0.0
MARKETVIEW_20041220.1537.txt 0.0 0.0 0.0 0.0 0.0 0.0 0.036 0.964 0.0 0.0
MARKETVIEW_20050105.1901.txt 0.0 0.0 0.0 0.0 0.0 1.0 0.0 0.0 0.0 0.0
MARKETVIEW_20050120.1641.txt 0.0 0.0 0.0 0.0 0.0 0.0 1.0 0.0 0.0 0.0
MARKETVIEW_20050126.0711.txt 0.0 0.0 0.0 0.0 0.0 0.0 1.0 0.0 0.0 0.0
MARKETVIEW_20050127.0716.txt 0.0 0.0 0.0 0.0 0.0 0.0 0.0 1.0 0.0 0.0
MARKETVIEW_20050201.0748.txt 0.0 0.0 0.0 0.0 0.0 1.0 0.0 0.0 0.0 0.0
MARKETVIEW_20050204.1322.txt 0.0 1.0 0.0 0.0 0.0 0.0 0.0 0.0 0.0 0.0
MARKETVIEW_20050204.1337.txt 0.0 0.0 0.0 0.0 0.0 1.0 0.0 0.0 0.0 0.0
MARKETVIEW_20050204.1736.txt 0.0 1.0 0.0 0.0 0.0 0.0 0.0 0.0 0.0 0.0
MARKETVIEW_20050205.1358.txt 0.0 0.0 1.0 0.0 0.0 0.0 0.0 0.0 0.0 0.0
MARKETVIEW_20050206.1951.txt 0.0 1.0 0.0 0.0 0.0 0.0 0.0 0.0 0.0 0.0
MARKETVIEW_20050206.2009.txt 0.0 1.0 0.0 0.0 0.0 0.0 0.0 0.0 0.0 0.0
MARKETVIEW_20050207.0746.txt 0.0 0.0 0.0 0.0 1.0 0.0 0.0 0.0 0.0 0.0
MARKETVIEW_20050208.2033.txt 1.0 0.0 0.0 0.0 0.0 0.0 0.0 0.0 0.0 0.0
MARKETVIEW_20050208.2059.txt 0.0 0.0 0.0 0.0 1.0 0.0 0.0 0.0 0.0 0.0
MARKETVIEW_20050209.1923.txt 0.0 0.0 0.0 0.0 0.0 0.0 0.0 0.0 1.0 0.0
MARKETVIEW_20050210.2138.txt 0.0 0.0 0.0 0.0 0.0 0.0 1.0 0.0 0.0 0.0
MARKETVIEW_20050212.1607.txt 0.0 0.0 0.0 0.0 1.0 0.0 0.0 0.0 0.0 0.0
MARKETVIEW_20050212.1717.txt 0.0 0.0 0.0 0.0 0.0 1.0 0.0 0.0 0.0 0.0
MARKETVIEW_20050214.2115.txt 1.0 0.0 0.0 0.0 0.0 0.0 0.0 0.0 0.0 0.0
MARKETVIEW_20050215.1858.txt 0.0 0.0 0.0 0.0 0.0 0.0 0.0 0.0 0.0 1.0
MARKETVIEW_20050216.2120.txt 0.0 0.0 0.0 0.0 0.0 1.0 0.0 0.0 0.0 0.0
MARKETVIEW_20050217.2115.txt 0.0 0.0 0.0 0.0 0.0 1.0 0.0 0.0 0.0 0.0
MARKETVIEW_20050222.0729.txt 0.0 0.0 0.0 0.0 0.0 0.0 0.0 1.0 0.0 0.0
MARKETVIEW_20050222.1919.txt 0.0 0.0 0.0 0.0 1.0 0.0 0.0 0.0 0.0 0.0
MARKETVIEW_20050225.0541.txt 0.0 0.0 0.975 0.0 0.025 0.0 0.0 0.0 0.0 0.0
MARKETVIEW_20050226.1307.txt 0.0 0.0 0.0 0.0 0.0 1.0 0.0 0.0 0.0 0.0
MARKETVIEW_20050226.1444.txt 0.0 0.0 0.0 0.0 0.0 0.0 1.0 0.0 0.0 0.0
MARKETVIEW_20050228.2211.txt 0.0 0.0 0.0 0.0 0.0 0.0 1.0 0.0 0.0 0.0
misc.invest.marketplace_20050208.2406.txt 0.0 0.0 0.0 0.0 0.0 0.0 1.0 0.0 0.0 0.0
misc.kids.pregnancy_20050120.0404.txt 1.0 0.0 0.0 0.0 0.0 0.0 0.0 0.0 0.0 0.0
misc.legal.moderated_20041202.1648.txt 0.0 0.0 0.0 0.0 1.0 0.0 0.0 0.0 0.0 0.0
misc.legal.moderated_20050129.2225.txt 0.0 0.0 0.0 0.0 0.0 0.0 0.0 0.0 1.0 0.0
misc.survivalism_20050210.0232.txt 0.0 0.0 0.0 0.0 0.0 0.0 1.0 0.0 0.0 0.0
misc.taxes_20050218.1250.txt 0.0 0.0 0.0 0.0 0.0 0.0 0.0 0.0 1.0 0.0
NYT_ENG_20030403.0008.txt 0.0 0.0 0.0 0.0 1.0 0.0 0.0 0.0 0.0 0.0
NYT_ENG_20030602.0074.txt 0.0 0.0 0.0 0.0 0.0 0.0 0.0 1.0 0.0 0.0
NYT_ENG_20030630.0079.txt 0.0 0.0 0.0 0.0 0.0 0.0 1.0 0.0 0.0 0.0
OIADVANTAGE_20041224.1007.txt 0.0 0.0 0.0 0.0 1.0 0.0 0.0 0.0 0.0 0.0
OIADVANTAGE_20050103.0944.txt 0.0 0.0 0.0 0.0 0.0 0.0 1.0 0.0 0.0 0.0
OIADVANTAGE_20050105.0922.txt 0.0 0.0 0.0 0.0 0.0 0.0 0.0 0.0 0.0 1.0
OIADVANTAGE_20050108.1323.txt 0.0 0.0 0.0 0.0 0.0 0.0 1.0 0.0 0.0 0.0
OIADVANTAGE_20050109.1947.txt 0.0 0.0 0.0 0.0 0.0 1.0 0.0 0.0 0.0 0.0
OIADVANTAGE_20050110.1009.txt 0.0 0.0 1.0 0.0 0.0 0.0 0.0 0.0 0.0 0.0
OIADVANTAGE_20050203.1000.txt 0.0 0.0 0.0 0.0 0.0 1.0 0.0 0.0 0.0 0.0
OIADVANTAGE_20050203.2102.txt 0.0 1.0 0.0 0.0 0.0 0.0 0.0 0.0 0.0 0.0
OIADVANTAGE_20050204.1155.txt 0.0 0.0 0.0 0.0 1.0 0.0 0.0 0.0 0.0 0.0
rec.arts.mystery_20050219.1126.txt 0.0 0.0 0.0 0.0 0.0 0.0 0.0 1.0 0.0 0.0
rec.arts.sf.written.robert-jordan_20050208.1350.txt 0.0 0.0 0.0 0.0 0.0 1.0 0.0 0.0 0.0 0.0
rec.boats_20050130.1006.txt 1.0 0.0 0.0 0.0 0.0 0.0 0.0 0.0 0.0 0.0
rec.games.chess.politics_20041216.1047.txt 0.0 0.0 0.0 0.0 0.0 0.0 1.0 0.0 0.0 0.0
rec.games.chess.politics_20041217.2111.txt 0.0 0.0 0.0 1.0 0.0 0.0 0.0 0.0 0.0 0.0
rec.music.makers.guitar.acoustic_20041228.1628.txt 0.0 0.0 1.0 0.0 0.0 0.0 0.0 0.0 0.0 0.0
rec.music.phish_20041215.1554.txt 1.0 0.0 0.0 0.0 0.0 0.0 0.0 0.0 0.0 0.0
rec.music.phish_20050217.1804.txt 1.0 0.0 0.0 0.0 0.0 0.0 0.0 0.0 0.0 0.0
rec.parks.theme_20050217.2019.txt 0.0 0.0 0.0 0.0 1.0 0.0 0.0 0.0 0.0 0.0
rec.sport.disc_20050209.2202.txt 0.0 1.0 0.0 0.0 0.0 0.0 0.0 0.0 0.0 0.0
rec.travel.cruises_20050216.1636.txt 0.0 0.0 0.0 0.0 1.0 0.0 0.0 0.0 0.0 0.0
rec.travel.cruises_20050222.0313.txt 0.0 0.0 0.0 0.0 0.0 1.0 0.0 0.0 0.0 0.0
rec.travel.europe_20050101.1800.txt 0.0 0.0 0.0 0.0 0.0 1.0 0.0 0.0 0.0 0.0
rec.travel.usa-canada_20050128.0121.txt 0.0 0.0 0.0 0.0 0.0 0.0 1.0 0.0 0.0 0.0
seattle.politics_20050122.2412.txt 1.0 0.0 0.0 0.0 0.0 0.0 0.0 0.0 0.0 0.0
soc.culture.china_20050203.0639.txt 0.0 0.0 0.0 0.0 0.0 0.0 1.0 0.0 0.0 0.0
soc.culture.hmong_20050210.1130.txt 0.0 0.0 0.0 0.0 0.0 0.0 0.0 1.0 0.0 0.0
soc.culture.indian_20041104.2348.txt 0.0 0.0 0.0 0.0 0.0 0.0 1.0 0.0 0.0 0.0
soc.culture.iraq_20050211.0445.txt 1.0 0.0 0.0 0.0 0.0 0.0 0.0 0.0 0.0 0.0
soc.culture.jewish_20050130.2105.txt 0.0 1.0 0.0 0.0 0.0 0.0 0.0 0.0 0.0 0.0
soc.history.war.world-war-ii_20050127.2403.txt 0.0 1.0 0.0 0.0 0.0 0.0 0.0 0.0 0.0 0.0
soc.history.what-if_20050129.1404.txt 0.0 0.0 0.0 0.0 0.0 0.0 0.0 0.0 0.0 1.0
soc.org.nonprofit_20050218.1902.txt 0.0 0.0 0.0 1.0 0.0 0.0 0.0 0.0 0.0 0.0
talk.politics.misc_20050216.1337.txt 1.0 0.0 0.0 0.0 0.0 0.0 0.0 0.0 0.0 0.0
TTRACY_20050223.1049.txt 0.0 0.0 0.0 0.0 0.0 0.0 1.0 0.0 0.0 0.0
uk.gay-lesbian-bi_20050127.0311.txt 0.0 0.0 0.0 0.0 0.0 0.0 1.0 0.0 0.0 0.0
XIN_ENG_20030314.0208.txt 0.0 0.0 0.0 1.0 0.0 0.0 0.0 0.0 0.0 0.0
XIN_ENG_20030317.0177.txt 0.0 0.0 0.0 0.0 1.0 0.0 0.0 0.0 0.0 0.0
XIN_ENG_20030324.0191.txt 0.0 0.0 0.0 0.0 0.0 1.0 0.0 0.0 0.0 0.0
XIN_ENG_20030327.0202.txt 0.0 0.0 0.0 0.0 0.0 0.0 0.0 1.0 0.0 0.0
XIN_ENG_20030408.0341.txt 0.0 0.0 0.0 0.0 0.0 0.0 0.0 0.0 1.0 0.0
XIN_ENG_20030415.0379.txt 0.0 0.0 0.0 0.0 0.0 0.0 0.0 0.0 1.0 0.0
XIN_ENG_20030423.0011.txt 0.0 0.0 1.0 0.0 0.0 0.0 0.0 0.0 0.0 0.0
XIN_ENG_20030425.0184.txt 0.0 0.0 0.0 0.0 0.0 1.0 0.0 0.0 0.0 0.0
XIN_ENG_20030509.0137.txt 0.0 0.0 1.0 0.0 0.0 0.0 0.0 0.0 0.0 0.0
XIN_ENG_20030513.0002.txt 0.0 0.0 1.0 0.0 0.0 0.0 0.0 0.0 0.0 0.0
XIN_ENG_20030523.0202.txt 1.0 0.0 0.0 0.0 0.0 0.0 0.0 0.0 0.0 0.0
XIN_ENG_20030609.0118.txt 0.0 0.0 0.0 1.0 0.0 0.0 0.0 0.0 0.0 0.0
XIN_ENG_20030610.0299.txt 0.0 0.0 0.0 0.0 0.0 1.0 0.0 0.0 0.0 0.0
XIN_ENG_20030616.0274.txt 1.0 0.0 0.0 0.0 0.0 0.0 0.0 0.0 0.0 0.0
XIN_ENG_20030624.0085.txt 0.0 0.0 0.0 0.0 0.0 0.0 1.0 0.0 0.0 0.0
