10 300
0 0.08532067388296127 0.11839310824871063 0.040822673588991165 0.025388462468981743 -0.009885727427899837 -0.047835078090429306 0.047161176800727844 -0.14713440835475922 0.11142857372760773 0.14620034396648407 0.07223828881978989 -0.07277792692184448 -0.06749288737773895 0.138015016913414 -0.06306923180818558 0.06510723382234573 -0.022494640201330185 0.06557445228099823 0.01403188519179821 -0.08118860423564911 0.016691746190190315 0.07908356934785843 0.05885626748204231 -0.017958326265215874 0.026887662708759308 -0.03164299204945564 -0.020352661609649658 -0.08670426905155182 0.09266171604394913 -0.07246171683073044 0.03064991906285286 -0.06135803461074829 -0.08494182676076889 -0.02487565390765667 0.010282184928655624 0.0046832445077598095 0.05579511448740959 0.022858306765556335 -0.002471845829859376 0.10236389935016632 0.04899559170007706 -0.032519061118364334 0.1844484806060791 -0.0782579630613327 -0.05178684741258621 -0.05689089745283127 -0.02977718412876129 -0.011910099536180496 -0.07534413039684296 0.10424572229385376 0.03954608365893364 0.0003241886442992836 -0.016568608582019806 -0.0031019009184092283 -0.02805061638355255 -0.07496191561222076 -0.04454262927174568 -0.038151249289512634 -0.051622916013002396 -0.08267967402935028 -0.03009018674492836 0.11881991475820541 -0.034606676548719406 -0.0404822938144207 -0.09177683293819427 0.00899669248610735 0.0316813588142395 0.021805360913276672 -0.062209948897361755 0.006578278727829456 0.04342678561806679 0.03676992282271385 0.0406072661280632 0.03813973814249039 -0.17245303094387054 -0.11541806161403656 0.07441386580467224 -0.021111829206347466 -0.003932857420295477 0.08410120010375977 0.04203026369214058 -0.05875012278556824 0.04910244420170784 0.07576034963130951 -0.021868737414479256 -0.01640254631638527 -0.12091987580060959 0.0858776792883873 0.006225490476936102 -0.009440011344850063 0.08697589486837387 -0.046762168407440186 -0.03895169124007225 -0.031469233334064484 -0.0511012002825737 -0.00544869527220726 0.12857642769813538 0.044885460287332535 0.02550269477069378 -0.003956465516239405 -0.05429898574948311 -0.0428343303501606 0.0426984578371048 0.03402222320437431 0.046660520136356354 -0.0745464563369751 -0.024089185521006584 -0.04978247359395027 0.041215915232896805 -0.029661890119314194 -0.024823350831866264 -0.030482344329357147 -0.008038937114179134 -0.009567111730575562 0.023729516193270683 -0.04465301334857941 0.015093882568180561 0.008473854511976242 0.10356796532869339 0.0943283811211586 -0.06049750745296478 0.13486231863498688 -0.011394621804356575 0.020625635981559753 -0.0275543425232172 -0.07377597689628601 -0.011496298015117645 -0.14254875481128693 0.020970243960618973 0.017009427770972252 0.06473967432975769 -0.1149967610836029 -0.04396803677082062 0.015309220179915428 -0.025889359414577484 -0.0069988868199288845 0.01622741110622883 -0.00959579274058342 -0.08538683503866196 0.06517640501260757 -0.03604090213775635 0.07694545388221741 -0.04446408152580261 -0.01636279933154583 0.002334456192329526 0.006903324741870165 -0.09314721077680588 -0.04403134435415268 -0.05295664072036743 -0.07574662566184998 0.14746524393558502 -0.03674570843577385 -0.013343698345124722 0.034066978842020035 0.008075009100139141 -0.0716434195637703 -0.04365251958370209 -0.09591678529977798 -0.013424714095890522 -0.057869043201208115 -0.027211347594857216 0.05696893855929375 0.0911698192358017 -0.05542294308543205 -0.1238313838839531 -0.09494248777627945 0.09559419751167297 -0.07408640533685684 0.09509983658790588 -0.028241923078894615 -0.06880433857440948 -0.06810671091079712 -0.031190713867545128 -0.11654536426067352 0.0013544686371460557 -0.06525805592536926 0.046520132571458817 -0.0003211349539924413 -0.051929038017988205 -0.026304662227630615 -0.09901365637779236 -0.0074530006386339664 -0.05807481333613396 -0.09144998341798782 0.056004591286182404 -0.05078285187482834 -0.012051095254719257 0.05148448050022125 0.06754174083471298 0.10370367765426636 0.08600586652755737 0.02137475274503231 0.06028216704726219 0.041788019239902496 0.002705512335523963 0.13571876287460327 0.04264317825436592 0.009301751852035522 -0.006979735568165779 -0.00848771445453167 0.03899800777435303 0.03560340404510498 0.011586889624595642 -0.009561276994645596 -0.0005425421986728907 -0.050702426582574844 0.028576646000146866 -0.03575931861996651 0.004597104154527187 -0.1006067544221878 -0.02164030820131302 0.08910384029150009 -0.007601139135658741 0.02047426998615265 -0.08615636825561523 -0.015953805297613144 -0.006799150258302689 -0.06112303584814072 -0.10724184662103653 -0.06671787053346634 -0.04687982797622681 0.032393086701631546 0.09415303170681 0.004966811742633581 0.07705686241388321 -0.07495950162410736 0.00708635663613677 0.1069575622677803 0.04315786063671112 -0.03719305619597435 0.02899884805083275 -0.08357483148574829 -0.0013445941731333733 0.02077750861644745 0.07715750485658646 -0.0038982394617050886 0.04765068367123604 -0.025833735242486 0.08596339076757431 -0.05756392329931259 0.0424194410443306 -0.004445196129381657 -0.06404269486665726 -0.10683904588222504 -0.03893076628446579 0.12364275753498077 -0.02968708612024784 -0.04910796508193016 0.06119931489229202 -0.06639713793992996 -0.013366800732910633 -0.0022464930079877377 -0.02408611960709095 0.048041969537734985 0.08895594626665115 0.003068584017455578 0.10920368134975433 0.0010788881918415427 0.00451713427901268 -0.07238426804542542 -0.05525549501180649 -0.018011754378676414 -7.395576540147886e-05 0.07690192759037018 -0.024949679151177406 0.10559597611427307 -0.06066980957984924 -0.01962353102862835 -0.10786153376102448 0.009153264574706554 0.030163800343871117 0.09494663029909134 0.014177026227116585 -0.08052191138267517 0.08351070433855057 -0.030896926298737526 -0.07921034842729568 0.05346129834651947 -0.09292606264352798 0.013229318894445896 -0.05569588020443916 -0.008512265048921108 -0.003796540666371584 0.07080531865358353 0.0010025335941463709 -0.0425875149667263 -0.13353832066059113 0.0637945905327797 0.058014798909425735 0.024337779730558395 -0.06227846443653107 -0.06913534551858902 -0.10785865038633347 0.1047135591506958 -0.012572129257023335 0.004877534229308367 -0.04031744599342346 -0.08083612471818924 0.05183595046401024 0.027917150408029556
1 0.11530479788780212 0.13356919586658478 0.056552592664957047 0.01867833361029625 -0.023365290835499763 -0.05618848279118538 0.04012073203921318 -0.16055695712566376 0.09661086648702621 0.142091765999794 0.07075537741184235 -0.07913776487112045 -0.06975231319665909 0.14206114411354065 -0.06937692314386368 0.05252785608172417 -0.047116175293922424 0.05755697935819626 0.01924244500696659 -0.05356409400701523 -0.017966018989682198 0.07889510691165924 0.05448529124259949 0.014864685945212841 0.03737267479300499 -0.011356492526829243 -0.030324773862957954 -0.08306464552879333 0.08486323058605194 -0.08005370944738388 0.03299296274781227 -0.07455805689096451 -0.11279918998479843 -0.02826032042503357 0.005218289792537689 -0.0027590300887823105 0.027878055348992348 0.014746464788913727 0.008024640381336212 0.09702783077955246 0.056455448269844055 -0.04067409411072731 0.18211747705936432 -0.0701596736907959 -0.009226995520293713 -0.06933491677045822 -0.038832198828458786 -0.02608690783381462 -0.07256488502025604 0.07408208400011063 0.02488880790770054 0.018498780205845833 0.021967899054288864 -0.01843888685107231 -0.031829338520765305 -0.08656446635723114 -0.019918078556656837 -0.038606882095336914 -0.04223007708787918 -0.05998724326491356 -0.033352892845869064 0.1330999881029129 -0.0512922964990139 -0.039023272693157196 -0.07625310868024826 -0.026148004457354546 0.03299960866570473 -0.0075412471778690815 -0.0976981371641159 0.03535245358943939 0.03899018466472626 0.025070715695619583 0.05862921103835106 0.032361142337322235 -0.15635928511619568 -0.1385779082775116 0.07065153121948242 -0.012593443505465984 -0.04423152282834053 0.111700639128685 0.053042516112327576 -0.0481228232383728 0.07479079812765121 0.09430522471666336 -0.027202066034078598 0.011261727660894394 -0.1305636614561081 0.08848738670349121 -0.02731761895120144 -0.014826785773038864 0.05138338357210159 -0.015079081058502197 -0.035885244607925415 -0.028201701119542122 -0.03137592971324921 0.0013281014980748296 0.1113494411110878 0.09664978832006454 0.006556893233209848 0.018093278631567955 -0.045623842626810074 -0.042971961200237274 0.05365249514579773 0.018581127747893333 0.054516904056072235 -0.08434654027223587 -0.023608434945344925 -0.03740290552377701 0.04934228956699371 -0.0068201227113604546 -0.028556175529956818 -0.013247162103652954 -0.008519167080521584 -0.03158725053071976 0.029490597546100616 -0.03589439392089844 0.0016848298255354166 0.016920575872063637 0.09682807326316833 0.09503322094678879 -0.06586261838674545 0.09693766385316849 0.01794011890888214 0.0400867685675621 -0.03961322084069252 -0.07123323529958725 -0.027374684810638428 -0.1468733251094818 0.015286958776414394 -0.003485799301415682 0.052183639258146286 -0.1047673374414444 -0.020128751173615456 0.04117320850491524 -0.02700907550752163 0.013545660302042961 0.052570730447769165 0.00018339890812058002 -0.11423859745264053 0.05362321436405182 -0.06419827789068222 0.05640324950218201 -0.02675388567149639 -0.02067362144589424 -0.0015504659386351705 0.0009219829807989299 -0.06809240579605103 -0.06061930954456329 -0.0789918452501297 -0.10980787128210068 0.1095673069357872 -0.017018307000398636 -0.02591782622039318 0.03832439333200455 -0.01899002678692341 -0.07751168310642242 -0.022723734378814697 -0.09429024159908295 0.0025037077721208334 -0.038629185408353806 -0.005592747591435909 0.027918078005313873 0.07196184992790222 -0.07830791920423508 -0.10854361206293106 -0.11513247340917587 0.0853552594780922 -0.1041146069765091 0.08291003853082657 -0.034604739397764206 -0.11836092919111252 -0.06188742443919182 -0.006963721942156553 -0.1230628713965416 0.0029222897719591856 -0.033321674913167953 0.06158861145377159 -0.004018126986920834 -0.017737291753292084 0.006003870163112879 -0.10261886566877365 -0.02313760668039322 -0.05014946311712265 -0.09137953072786331 0.03867676109075546 -0.08411064743995667 0.0016131072770804167 0.04123653843998909 0.0943351462483406 0.09631004929542542 0.07816935330629349 0.004187456332147121 0.07874567061662674 0.06247105821967125 -0.018277743831276894 0.1285134255886078 0.05593958497047424 -0.010266446508467197 -0.011388863436877728 -0.020475441589951515 0.06224449351429939 0.04959486424922943 0.02669355273246765 0.027667582035064697 -0.017830651253461838 -0.053054116666316986 0.022126417607069016 -0.040619853883981705 0.01743338257074356 -0.11790280044078827 -0.02769235149025917 0.059390418231487274 -0.021075692027807236 0.033771391957998276 -0.07316573709249496 -0.056958649307489395 -0.0038858638145029545 -0.04285713657736778 -0.11979039013385773 -0.0639166608452797 -0.0715053454041481 0.00990956462919712 0.0922325849533081 -0.021365996450185776 0.07881823927164078 -0.05936351418495178 0.04171867296099663 0.08369705080986023 0.04606164991855621 -0.03730057179927826 0.06443984061479568 -0.10500352829694748 -0.007429686840623617 0.041624464094638824 0.08095769584178925 0.00045025782310403883 0.051918983459472656 -0.04308118298649788 0.05886454880237579 -0.07331915944814682 0.017692411318421364 0.014544529840350151 -0.05806783214211464 -0.09636303037405014 -0.01277222391217947 0.16779200732707977 -0.011479439213871956 -0.02336961217224598 0.07934988290071487 -0.06725147366523743 0.023307189345359802 -0.010525321587920189 -0.020125292241573334 0.04702719300985336 0.08358307182788849 0.016592975705862045 0.07839208841323853 0.003858898300677538 -0.04246916249394417 -0.08498434722423553 -0.03667015954852104 -0.014734338037669659 0.012807220220565796 0.096844382584095 -0.017131945118308067 0.08045118302106857 -0.08347379416227341 -0.01451895385980606 -0.08494186401367188 0.040531452745199203 0.033451441675424576 0.09511823952198029 0.013546592555940151 -0.06376443803310394 0.09793103486299515 -0.04669705405831337 -0.0732734426856041 0.04323451220989227 -0.08283931761980057 0.027800848707556725 -0.09675687551498413 -0.013212265446782112 0.007665760815143585 0.06666283309459686 -0.0013416614383459091 -0.024282988160848618 -0.15657509863376617 0.08024436235427856 0.068414106965065 0.014320265501737595 -0.034428153187036514 -0.05527022108435631 -0.11871513724327087 0.14722470939159393 -0.0002855308703146875 0.0030334102921187878 -0.02321794629096985 -0.10559413582086563 0.05782680958509445 -2.2363083189702593e-05
2 0.0857318863272667 0.10802164673805237 0.060422178357839584 0.001206985441967845 0.01972593367099762 -0.04868512600660324 0.035907089710235596 -0.15618030726909637 0.11751916259527206 0.15698648989200592 0.05850124731659889 -0.04274367168545723 -0.06417866051197052 0.11615747213363647 -0.06374535709619522 0.05803074315190315 -0.03298911079764366 0.06995638459920883 0.027578458189964294 -0.10005644708871841 0.03673209249973297 0.07929528504610062 0.03923963010311127 -0.0003302590921521187 0.04303355887532234 -0.05093102157115936 -0.04928206279873848 -0.07068418711423874 0.10644303262233734 -0.08715888857841492 0.06292793154716492 -0.08347613364458084 -0.08667118102312088 0.006435137242078781 0.003536633448675275 0.03679303079843521 0.06878039240837097 0.03228672221302986 -0.026809900999069214 0.12107594311237335 0.006376480683684349 -0.016018684953451157 0.1523849368095398 -0.04383838549256325 -0.05450495705008507 -0.07356886565685272 -0.036221690475940704 -0.009005044586956501 -0.10387322306632996 0.13554616272449493 0.05540525168180466 0.008804921060800552 -0.004378040321171284 0.023848991841077805 -0.028189318254590034 -0.08742376416921616 -0.03956480696797371 -0.03125086799263954 -0.051017533987760544 -0.08910674601793289 -0.06719369441270828 0.1120786964893341 -0.03763062506914139 -0.040564652532339096 -0.09087011218070984 -0.0010763724567368627 0.04362834244966507 -0.0061868587508797646 -0.06255019456148148 -0.0099596893414855 0.004160288721323013 0.011439354158937931 0.02847827598452568 0.06239853426814079 -0.20559562742710114 -0.12032194435596466 0.06793760508298874 -0.0003751911863218993 0.011537832207977772 0.1014874204993248 0.0515025332570076 -0.08894043415784836 0.06076904013752937 0.08361504226922989 -0.0009088587830774486 -0.045083627104759216 -0.1303209662437439 0.045020055025815964 0.002410698449239135 -0.00648072361946106 0.06529545783996582 -0.08678677678108215 -0.045258164405822754 -0.021736430004239082 -0.0742306262254715 -0.029077505692839622 0.12156007438898087 0.018408939242362976 -0.03243093937635422 -0.013974197208881378 -0.048899129033088684 -0.06891858577728271 0.048292335122823715 0.05966853350400925 0.07955323904752731 -0.05315980315208435 -0.023899944499135017 -0.05039268359541893 0.03970641270279884 -0.05299077928066254 -0.03892070800065994 -0.03052343800663948 -0.014379557222127914 -0.01446161512285471 0.0049658119678497314 -0.06616633385419846 0.028828684240579605 -0.00453545618802309 0.1214454248547554 0.10337088257074356 -0.037792056798934937 0.16379164159297943 0.01766262948513031 0.044571682810783386 -0.048437636345624924 -0.10832246392965317 0.006290055345743895 -0.12665043771266937 0.031596653163433075 0.0200838390737772 0.08061633259057999 -0.1143847182393074 -0.0017983111320063472 0.019494177773594856 -0.042784128338098526 0.013172301463782787 0.04509912058711052 -0.009733841754496098 -0.14156608283519745 0.061309073120355606 -0.046238575130701065 0.09439992904663086 -0.041904792189598083 -0.04183153435587883 0.023685503751039505 0.022039294242858887 -0.08974611014127731 -0.03647807613015175 -0.04758104681968689 -0.08818858861923218 0.14237631857395172 -0.03320908173918724 -0.00574963353574276 0.02330324798822403 0.010468832217156887 -0.10704012215137482 -0.04818360134959221 -0.0805223137140274 0.014817758463323116 -0.08682702481746674 0.00704967463389039 0.03860169276595116 0.08294253796339035 -0.0650511384010315 -0.15416419506072998 -0.06960888206958771 0.11789321154356003 -0.05761372298002243 0.09710490703582764 -0.010302041657269001 -0.06676643341779709 -0.06324554234743118 -0.03407885879278183 -0.1214110255241394 0.01006387546658516 -0.0373520664870739 0.06810754537582397 0.009176554158329964 -0.09755396842956543 -0.03479669988155365 -0.09790559113025665 0.01638616994023323 -0.05662171170115471 -0.07018827646970749 0.09999586641788483 -0.056672342121601105 -0.01720265857875347 0.051741987466812134 0.07209622114896774 0.09501434862613678 0.049417149275541306 0.011225436814129353 0.05230648070573807 0.0497593879699707 0.0025994356255978346 0.1644395887851715 0.03130597248673439 -0.0004496063047554344 -0.008961646817624569 -0.022951463237404823 0.07241330295801163 0.04055934399366379 -0.000310864532366395 0.005182737018913031 0.006356251426041126 -0.08183611929416656 0.051439203321933746 -0.029030341655015945 0.02468261308968067 -0.11099760979413986 -0.01888303831219673 0.04721847549080849 -0.021082337945699692 0.015992656350135803 -0.09178989380598068 -0.02945292554795742 -0.019626418128609657 -0.04910064861178398 -0.13016287982463837 -0.0483597069978714 -0.03637387230992317 0.04181550443172455 0.10457148402929306 0.050079092383384705 0.06793127954006195 -0.09458088129758835 -0.012389489449560642 0.10042912513017654 0.058864280581474304 -0.044603381305933 0.026512203738093376 -0.09599097073078156 0.012561161071062088 0.059926837682724 0.09658126533031464 -0.02625158615410328 0.06719467788934708 -0.0034750085324048996 0.10776589810848236 -0.05673704668879509 0.008949298411607742 0.0192100927233696 -0.06290441751480103 -0.114458367228508 -0.05802144482731819 0.11841849982738495 -0.04106045141816139 -0.08733725547790527 0.08147113025188446 -0.09268034249544144 -0.03128431364893913 0.010533292777836323 -0.03583548590540886 0.06345854699611664 0.11805656552314758 0.03704596310853958 0.12631681561470032 -0.01797892525792122 0.023506298661231995 -0.10300801694393158 -0.062075380235910416 -0.00595520855858922 -0.00309859961271286 0.09674561023712158 -0.007726331707090139 0.10171075165271759 -0.07665787637233734 -0.00908190943300724 -0.1078106090426445 0.01948479749262333 0.026225358247756958 0.10091361403465271 -0.0018653013976290822 -0.10015804320573807 0.09465157240629196 -0.018410585820674896 -0.08976760506629944 0.0563201904296875 -0.08729416131973267 0.029070228338241577 -0.07559610903263092 0.00280735082924366 -0.024849528446793556 0.0921415314078331 0.014292367734014988 -0.05951963737607002 -0.1366463601589203 0.10677257925271988 0.05778563395142555 -0.009339225478470325 -0.022726500406861305 -0.09205303341150284 -0.058729976415634155 0.09593326598405838 -0.021486962214112282 0.026077916845679283 -0.07401613146066666 -0.11216098815202713 0.04482528939843178 -0.001567441038787365
3 0.06616465002298355 0.06879869848489761 0.025627242401242256 -0.0013078583870083094 -0.0164031982421875 -0.04395638406276703 0.058372072875499725 -0.15376980602741241 0.10929596424102783 0.13101738691329956 0.13342411816120148 -0.07255707681179047 -0.10383690893650055 0.0882924422621727 -0.06946827471256256 0.09840001165866852 0.029905425384640694 0.04631466418504715 -0.008868535049259663 -0.04888608679175377 0.02480348013341427 0.03782235085964203 0.07114090025424957 0.016750918701291084 0.019125763326883316 -0.053157489746809006 -0.01751200295984745 -0.027271270751953125 0.01759899966418743 -0.048193931579589844 0.046328917145729065 -0.07598776370286942 -0.06515686959028244 -0.006762398406863213 0.006104575470089912 0.04889170452952385 0.07952487468719482 -0.03596308454871178 -0.009777652099728584 0.07399492710828781 0.011412356048822403 -0.0024399226531386375 0.16028623282909393 -0.08217430114746094 -0.06287775933742523 -0.10399624705314636 -0.02014552243053913 0.015576494857668877 -0.11562220007181168 0.16207170486450195 0.053006649017333984 -0.01799043081700802 -0.012824799865484238 0.0012335015926510096 -0.0032357110176235437 -0.07217439264059067 -0.07209978997707367 -0.0439094714820385 -0.08165773004293442 -0.08237531781196594 -0.031710729002952576 0.04650010168552399 -0.03859135881066322 -0.027166591957211494 -0.06422281265258789 0.021759668365120888 0.013752831146121025 -0.019657770171761513 -0.08562660217285156 0.009946293197572231 0.04355389624834061 -0.0061050718650221825 0.05108748376369476 0.03429704159498215 -0.1812058538198471 -0.0599093958735466 -0.0032598706893622875 0.0066390568390488625 0.022882143035531044 0.07732561230659485 0.04802227020263672 -0.09292909502983093 0.08327504992485046 0.060852475464344025 -0.004327456001192331 -0.09247737377882004 -0.12033397704362869 0.08228608965873718 0.038855500519275665 -0.0024313395842909813 0.12104924768209457 -0.06688223779201508 -0.002838598331436515 -0.0660688579082489 -0.019765058532357216 -0.047061070799827576 0.12554094195365906 -0.01875527761876583 0.027556683868169785 -0.003056102432310581 -0.018410801887512207 -0.05096859484910965 0.03284793347120285 0.042966630309820175 0.12960296869277954 -0.06178392469882965 0.003741794265806675 -0.023024771362543106 0.06679520010948181 -0.05872827023267746 0.005886925384402275 0.028769386932253838 -0.030163096264004707 -0.023313231766223907 -0.011783864349126816 -0.12179067730903625 0.02998744137585163 -0.049848344177007675 0.11591657251119614 0.10945425927639008 0.020782364532351494 0.14596281945705414 -0.022648943588137627 0.027717960998415947 0.0225541852414608 -0.11573071032762527 0.0039503308944404125 -0.11433622241020203 0.07974430918693542 0.03402095288038254 0.0351821593940258 -0.11206536740064621 -0.01913817785680294 0.04142114892601967 -0.030693653970956802 -0.007490952964872122 0.07823774218559265 0.06740773469209671 -0.10573434829711914 0.07146602123975754 -0.042435962706804276 0.08200211077928543 -0.058126237243413925 -0.0029425090178847313 -0.017472373321652412 0.07320870459079742 -0.09086714684963226 0.005799638107419014 -0.02860344760119915 -0.06025208532810211 0.18766726553440094 -0.020522011443972588 0.018041398376226425 0.018567880615592003 -0.029716916382312775 -0.05757194012403488 -0.07019869238138199 -0.09780926257371902 0.019410371780395508 -0.08081754297018051 0.00646477285772562 0.08721855282783508 0.12243424355983734 0.002556425053626299 -0.13813632726669312 -0.05209965258836746 0.14013807475566864 -0.08173951506614685 0.025269614532589912 -0.0046750702895224094 -0.07483598589897156 -0.10005272924900055 -0.02869611233472824 -0.11183971911668777 -0.03724183142185211 0.0026223394088447094 0.09187465161085129 0.04313543066382408 -0.06644609570503235 -0.03859655186533928 -0.07494502514600754 0.029180845245718956 -0.08787621557712555 -0.11036470532417297 0.11602047830820084 -0.04104476422071457 0.0077483984641730785 0.03417004644870758 0.06166670098900795 0.09111324697732925 0.08839911222457886 0.018390629440546036 0.017613517120480537 0.0424160435795784 -0.0066903699189424515 0.13466300070285797 0.034851498901844025 -0.019365735352039337 -0.030381521210074425 -0.011825932189822197 0.07005585730075836 0.04170755669474602 0.022298600524663925 -0.009161259979009628 0.026776976883411407 -0.014788363128900528 0.041461944580078125 -0.028153032064437866 0.04794735461473465 -0.09201166033744812 -0.018333593383431435 0.08115240931510925 0.007372962310910225 0.0693226233124733 -0.05364227294921875 -0.02656014822423458 0.010839992202818394 -0.04029839485883713 -0.08833885192871094 -0.10806422680616379 -0.020709143951535225 0.04599136859178543 0.0875692367553711 0.03951263427734375 0.08890906721353531 -0.074188232421875 0.02346637472510338 0.10878881067037582 -0.0067382920533418655 0.00038189359474927187 0.029686663299798965 -0.09681341052055359 0.001139521598815918 0.04849618673324585 0.07098911702632904 -0.02143976464867592 0.039399199187755585 -0.03743404895067215 0.032766979187726974 -0.008315403945744038 -0.007531854789704084 0.03102874755859375 -0.05951608717441559 -0.14469654858112335 -0.08151308447122574 0.12526655197143555 -0.024680932983756065 -0.05080835148692131 0.12345170974731445 -0.10305860638618469 0.03712840750813484 0.03527397662401199 0.02433856390416622 0.047058913856744766 0.09862751513719559 0.055109452456235886 0.09900771081447601 -0.019620247185230255 -0.010826011188328266 -0.09011925756931305 -0.0428505465388298 -0.014153480529785156 -0.04090314358472824 0.03620051592588425 0.02097349613904953 0.13653182983398438 -0.068565234541893 0.03706647455692291 -0.09655104577541351 -0.012975692749023438 0.05698511376976967 0.0683523565530777 -0.01873811148107052 -0.0093400739133358 0.12275324761867523 -0.046827368438243866 -0.08964506536722183 0.0026292800903320312 -0.03889889270067215 -0.041531629860401154 -0.0172000452876091 -0.01883416622877121 0.021900247782468796 0.05066786706447601 0.021658234298229218 -0.030688894912600517 -0.10264015197753906 0.042703840881586075 0.029287656769156456 0.035388749092817307 0.011123869568109512 -0.028658457100391388 -0.09384780377149582 0.0938313826918602 -0.0022149616852402687 0.04557893052697182 3.560383993317373e-05 -0.11193707585334778 0.03929201886057854 0.03356282040476799
4 0.09165674448013306 0.11560336500406265 0.04844996705651283 -0.0012313976185396314 0.01856890879571438 -0.04201813042163849 0.028303859755396843 -0.1594645231962204 0.08950502425432205 0.16094814240932465 0.0670783519744873 -0.10241127014160156 -0.0762040764093399 0.13258515298366547 -0.05368363857269287 0.03110457956790924 -0.011929578147828579 0.05870393291115761 0.011005046777427197 -0.0807347521185875 0.008865396492183208 0.063847117125988 0.030311988666653633 0.0011788301635533571 0.02429940178990364 -0.06519274413585663 -0.028271054849028587 -0.06631670147180557 0.10239208489656448 -0.08398334681987762 0.0554884634912014 -0.08539725840091705 -0.07731882482767105 -0.01764320768415928 0.009734219871461391 0.018443219363689423 0.0611698180437088 0.019167665392160416 -0.019625676795840263 0.10838039219379425 0.030332228168845177 -0.03134862333536148 0.16245579719543457 -0.06954631209373474 -0.018380634486675262 -0.07348675280809402 -0.05402066931128502 -0.014401959255337715 -0.0670900046825409 0.08806251734495163 0.024459661915898323 0.01941549777984619 0.020215287804603577 -0.0013004685752093792 -0.028614412993192673 -0.08034878224134445 -0.02187749370932579 -0.0389980711042881 -0.06938210874795914 -0.08761680126190186 -0.04724470525979996 0.11733012646436691 -0.04039755463600159 -0.04648498818278313 -0.0943995788693428 0.005276092328131199 0.05706966668367386 -0.01627461612224579 -0.10038947314023972 -0.0030870414339005947 0.008083321154117584 0.016685854643583298 0.04314891993999481 0.04614627733826637 -0.20645850896835327 -0.11973042041063309 0.07699119299650192 -0.041024912148714066 -0.007570719346404076 0.09025722742080688 0.06567634642124176 -0.05542946606874466 0.05519600957632065 0.07329409569501877 -0.009526984766125679 -0.022877395153045654 -0.11921656131744385 0.07859592139720917 -0.02359187975525856 -0.013657059520483017 0.07426197081804276 -0.05447067320346832 -0.023030878975987434 -0.007541321683675051 -0.059488456696271896 0.0005970178754068911 0.1164160892367363 0.03085947223007679 -0.030959133058786392 -0.007907561026513577 -0.07090967148542404 -0.03835025057196617 0.06333142518997192 0.035660520195961 0.0878533124923706 -0.09183547645807266 -0.005670822691172361 -0.0543404147028923 0.04169647768139839 -0.03824790567159653 -0.035423941910266876 -0.016750020906329155 -0.00538726057857275 -0.009830226190388203 0.003708086907863617 -0.05583726614713669 0.021050933748483658 0.01484494749456644 0.10155041515827179 0.10949014872312546 -0.05483701080083847 0.13435840606689453 0.008668252266943455 0.036158397793769836 -0.039751503616571426 -0.11008501797914505 -0.014670425094664097 -0.13978415727615356 0.00989039707928896 0.0020683289039880037 0.08039169013500214 -0.10299157351255417 -0.03556155785918236 0.019644878804683685 -0.06058363988995552 0.019726809114217758 0.03092430904507637 -0.03626004979014397 -0.10593446344137192 0.0536591112613678 -0.04103502258658409 0.07389751821756363 -0.026420647278428078 -0.036397453397512436 -0.005422135349363089 0.0208908524364233 -0.09225336462259293 -0.06810788810253143 -0.065388023853302 -0.10392215847969055 0.13953882455825806 -0.025048624724149704 -0.04133531451225281 0.02405424788594246 0.012453536503016949 -0.08582361042499542 -0.03700584918260574 -0.08097092062234879 0.0048584360629320145 -0.08932062983512878 -0.01583474688231945 0.03850298002362251 0.06898472458124161 -0.062134064733982086 -0.15091277658939362 -0.11895417422056198 0.0979836955666542 -0.07661256194114685 0.0974401906132698 -0.03408854454755783 -0.07469873130321503 -0.05397623032331467 -0.05948254466056824 -0.1117662638425827 -0.010746077634394169 -0.05353690683841705 0.05926389619708061 0.024113250896334648 -0.0580625906586647 -0.025411836802959442 -0.09305310249328613 -0.009171350859105587 -0.0462578721344471 -0.08120173960924149 0.05984137952327728 -0.07357270270586014 0.012874643318355083 0.05429373309016228 0.07507967948913574 0.10293569415807724 0.0681840106844902 -0.008686953224241734 0.06374575942754745 0.05007783696055412 -0.009620435535907745 0.14618824422359467 0.03644444793462753 0.008681789971888065 -0.008456074632704258 -0.012765955179929733 0.07088203728199005 0.06657799333333969 -0.001015189685858786 -0.010289564728736877 0.0012479271972551942 -0.06557553261518478 0.021776190027594566 -0.027695434167981148 0.024855129420757294 -0.12648825347423553 -0.027037588879466057 0.0878806859254837 0.005638329777866602 0.017442157492041588 -0.09329523146152496 -0.04517173767089844 -0.032089393585920334 -0.0437161922454834 -0.12463251501321793 -0.05773499980568886 -0.05057186260819435 0.03762180730700493 0.08387825638055801 -0.0015692622400820255 0.08716797828674316 -0.07015806436538696 0.01836565136909485 0.0970081314444542 0.03869425877928734 -0.03804667294025421 0.045432768762111664 -0.10604533553123474 -0.00860761571675539 0.05780375376343727 0.07387751340866089 -0.013126851990818977 0.01674613542854786 -0.049742694944143295 0.09226817637681961 -0.05597949028015137 0.01788005419075489 0.03417596220970154 -0.07063216716051102 -0.13650062680244446 -0.03930168226361275 0.12433471530675888 -0.010719338431954384 -0.0496755875647068 0.08130599558353424 -0.07375839352607727 -0.0030258845072239637 0.031502965837717056 -0.017845220863819122 0.05156446993350983 0.11312610656023026 0.020310956984758377 0.07976223528385162 -0.008402376435697079 -0.0043600182980299 -0.08970104157924652 -0.07529263198375702 -0.014178812503814697 -0.003445576410740614 0.09475584328174591 0.008893822319805622 0.08978378027677536 -0.044489726424217224 -0.017803439870476723 -0.08413945883512497 0.037572938948869705 0.012710008770227432 0.08298901468515396 -0.0053221238777041435 -0.0951559990644455 0.11812206357717514 -0.0326496846973896 -0.08993841707706451 0.04704482480883598 -0.06652571260929108 0.04463876411318779 -0.06758797913789749 -0.000928949739318341 -0.0069702425971627235 0.055714577436447144 -0.004217369481921196 -0.040745753794908524 -0.13173486292362213 0.08274850249290466 0.05404222011566162 0.023777887225151062 -0.04131092131137848 -0.08627165108919144 -0.1050264909863472 0.09257382899522781 -0.009184939786791801 0.019631482660770416 -0.06313294917345047 -0.08688171952962875 0.03976214677095413 0.016531482338905334
5 0.05684586614370346 0.07106205821037292 0.08056038618087769 0.009870617650449276 0.04714004322886467 -0.06279484182596207 0.04438112676143646 -0.12366054952144623 0.1121024563908577 0.15881435573101044 0.09236853569746017 -0.1064848005771637 -0.05607258901000023 0.10784780234098434 -0.042225711047649384 0.07711378484964371 0.0005241916514933109 0.04807652533054352 -0.0012893886305391788 -0.05320250615477562 0.024254435673356056 0.046103302389383316 0.007988478057086468 0.019680054858326912 0.03609946370124817 -0.08547402173280716 -0.022746464237570763 -0.044803187251091 0.07771775871515274 -0.03391451761126518 0.03312620520591736 -0.08893898874521255 -0.09407534450292587 -0.013227148912847042 0.024962715804576874 0.01664873957633972 0.0781705379486084 0.0184138473123312 -0.0658210888504982 0.13137634098529816 0.021163668483495712 -0.032380394637584686 0.1468922346830368 -0.08873863518238068 -0.05394790694117546 -0.06066488102078438 -0.031586792320013046 -0.0160567294806242 -0.07337639480829239 0.10618817061185837 0.02166486717760563 0.013451719656586647 0.011194579303264618 0.00876572635024786 -0.04957098886370659 -0.06623189896345139 -0.03604525327682495 0.004956472665071487 -0.0798054113984108 -0.09766584634780884 -0.039559099823236465 0.10993560403585434 -0.041742004454135895 -0.04313528165221214 -0.0608319416642189 0.012381274253129959 0.03408416360616684 -0.028489788994193077 -0.11449102312326431 0.00205168011598289 0.014952071942389011 0.012648929841816425 0.03733471781015396 0.02395063452422619 -0.1931031495332718 -0.08704441040754318 0.02710985206067562 0.010246297344565392 0.024082068353891373 0.06771394610404968 0.049470603466033936 -0.06705903261899948 0.03973370045423508 0.10160677134990692 0.026687121018767357 -0.01592164672911167 -0.11869145184755325 0.06444068998098373 0.011486628092825413 -0.0069335936568677425 0.10755583643913269 -0.05047198757529259 0.009997759945690632 -0.04386916384100914 -0.0602550208568573 -0.0487644337117672 0.14100897312164307 0.05522714927792549 -0.008565009571611881 -0.036932747811079025 -0.06231016293168068 -0.08188125491142273 0.040637414902448654 0.03314555808901787 0.12375425547361374 -0.10348182916641235 -0.00878418143838644 -0.05315371975302696 0.04181138053536415 -0.07933393865823746 -0.01641179993748665 -0.04466044902801514 -0.022949229925870895 -0.0226583369076252 0.006056167650967836 -0.05984848365187645 0.03797044977545738 -0.009245279245078564 0.12264667451381683 0.11024065315723419 -0.06083175539970398 0.1449064016342163 -0.04371044039726257 0.09281260520219803 0.027384363114833832 -0.12181676924228668 -0.02569783851504326 -0.13867612183094025 0.035455092787742615 -0.014504513703286648 0.07290900498628616 -0.10909564048051834 -0.05690790340304375 0.04162406548857689 -0.045759040862321854 0.01549803838133812 0.025987619534134865 0.015988444909453392 -0.07371343672275543 0.06994891911745071 -0.05954819917678833 0.060466986149549484 -0.04862431436777115 -0.022797467187047005 -0.013993511907756329 0.058780230581760406 -0.1212560385465622 -0.06775974482297897 -0.04529966041445732 -0.1139906570315361 0.1435519903898239 -0.022958749905228615 -0.034184787422418594 0.05300476774573326 0.01937728188931942 -0.07801501452922821 -0.058191753923892975 -0.06412286311388016 0.04875658452510834 -0.0704130232334137 -0.006876462139189243 0.03385791555047035 0.06821615993976593 -0.023500917479395866 -0.1309761255979538 -0.06023868918418884 0.11051995307207108 -0.08193982392549515 0.06018191948533058 -0.01709032990038395 -0.024236589670181274 -0.06002858653664589 -0.06636880338191986 -0.11768917739391327 -0.019513780251145363 -0.03897133097052574 0.0839017704129219 0.028375936672091484 -0.08314750343561172 -0.0324862040579319 -0.10303642600774765 0.0033733996096998453 -0.04517655074596405 -0.08022713661193848 0.07884594798088074 -0.06337683647871017 -0.00010389563249191269 0.03182949870824814 0.06962322443723679 0.08224744349718094 0.04407146945595741 0.0021093813702464104 0.02546859160065651 0.016713913530111313 -0.008287988603115082 0.149338498711586 0.023153644055128098 -0.0551818385720253 -0.004104969557374716 -0.002027391456067562 0.0666516050696373 0.04258783906698227 -0.004445577505975962 -0.013397363014519215 0.024972667917609215 -0.07258810102939606 0.011304646730422974 -0.01445077732205391 0.015691259875893593 -0.10923432558774948 -0.010807489044964314 0.07434000819921494 0.054214660078287125 0.04493022710084915 -0.08523049205541611 -0.016560614109039307 -0.02316611260175705 -0.018138572573661804 -0.14608456194400787 -0.10899261385202408 -0.018292052671313286 0.05239645391702652 0.05833401530981064 0.028528815135359764 0.13003429770469666 -0.10396739095449448 0.005698342341929674 0.11004266887903214 0.00805647298693657 -0.04092365503311157 0.04236401990056038 -0.09763628989458084 0.006502067670226097 0.05404931679368019 0.03449495881795883 -0.0034016647841781378 0.0736633688211441 -0.057585425674915314 0.08507546037435532 -0.03725558891892433 0.041926510632038116 0.054244231432676315 -0.07047346979379654 -0.20282216370105743 -0.03326272964477539 0.12076891213655472 -0.017110202461481094 -0.030994025990366936 0.0876581072807312 -0.08089232444763184 0.024081237614154816 0.029680561274290085 0.016129501163959503 0.08759467303752899 0.11750713735818863 0.022384852170944214 0.1228540688753128 -0.007502913940697908 0.021308956667780876 -0.06455301493406296 -0.07502855360507965 -0.026088891550898552 -0.04836141690611839 0.06697127968072891 -0.006750592961907387 0.08762574940919876 -0.04567652568221092 0.013125976547598839 -0.08021436631679535 -0.007543736137449741 0.048020631074905396 0.0901046097278595 -0.0247956570237875 -0.055292073637247086 0.09560663253068924 -0.019959013909101486 -0.09020373225212097 0.02711453288793564 -0.009766168892383575 0.041880007833242416 -0.06731468439102173 0.021556278690695763 0.012958189472556114 0.08526549488306046 -0.019331317394971848 -0.023409239947795868 -0.0690389946103096 0.08832623064517975 0.048055194318294525 0.022068781778216362 -0.027357399463653564 -0.045622315257787704 -0.10186441242694855 0.08001761138439178 0.005755698774009943 0.011440977454185486 -0.028360731899738312 -0.11078070104122162 0.04032701626420021 -0.02094864472746849
6 0.057622071355581284 0.0685814842581749 0.025471586734056473 -0.0041668349876999855 0.008603974245488644 -0.05548396706581116 0.01865611970424652 -0.12965556979179382 0.13831724226474762 0.10823582857847214 0.06364639848470688 -0.03764725849032402 -0.08984152972698212 0.10385891050100327 -0.07589972764253616 0.11142399162054062 0.03382520005106926 0.09632457047700882 -0.017886970192193985 -0.0019091481808573008 0.025019226595759392 0.09633878618478775 0.06772861629724503 0.03174538537859917 0.06902384757995605 -0.07932775467634201 -0.04851498082280159 -0.05203668773174286 0.032606907188892365 -0.05805054306983948 0.04871904477477074 -0.07694888859987259 -0.0774112120270729 -0.00913152750581503 0.050114210695028305 -0.002967780688777566 0.07013527303934097 -0.0023969607427716255 -0.03700233995914459 0.10281636565923691 0.032712049782276154 -0.025862036272883415 0.13978570699691772 -0.07948815077543259 -0.11066078394651413 -0.11515747010707855 -0.03958340734243393 0.024451235309243202 -0.1026836559176445 0.1188732385635376 0.026121238246560097 -0.02906240150332451 -0.004281271249055862 -0.00849652849137783 -0.05181804299354553 -0.056338150054216385 -0.06781549751758575 -0.03933681920170784 -0.04241654649376869 -0.06624438613653183 -0.008137021213769913 0.06489880383014679 -0.031551990658044815 -0.026882514357566833 -0.052430812269449234 -0.020736409351229668 -0.0010251929052174091 0.005908694118261337 -0.03714203089475632 0.0101205138489604 0.04876454547047615 -0.001990505727007985 0.028789136558771133 0.0059888120740652084 -0.1429424285888672 -0.04673504829406738 0.03166703134775162 -0.009990327060222626 0.038011301308870316 0.04489345848560333 0.033834077417850494 -0.09401972591876984 0.051172878593206406 0.08808550983667374 -0.0158779788762331 -0.06458853930234909 -0.10288380831480026 0.06614133715629578 0.05498504638671875 0.006060550920665264 0.1500413566827774 -0.07015559822320938 0.015606826171278954 -0.05749288573861122 -0.035065848380327225 -0.06770866364240646 0.1227559819817543 0.03782977536320686 0.046745702624320984 -0.028797870501875877 -0.03791261836886406 -0.05344056338071823 0.006265832576900721 0.04539977014064789 0.08000479638576508 -0.07410474866628647 -0.0023543525021523237 -0.05060777813196182 0.05475849285721779 -0.0575140118598938 -0.0053277029655873775 0.010759321041405201 -0.05292249843478203 0.0032233535312116146 0.009275848045945168 -0.06434357166290283 0.02714119851589203 -0.0002610115334391594 0.1238078773021698 0.10602683573961258 0.008521152660250664 0.13105632364749908 -0.03337149694561958 0.026532109826803207 -0.010911205783486366 -0.02967161498963833 0.007604608312249184 -0.12757831811904907 0.0459454320371151 0.003365987678989768 0.050851114094257355 -0.07349837571382523 -0.03922652080655098 0.00931345671415329 -0.07834034413099289 0.0037258637603372335 -0.0039177220314741135 0.039399050176143646 -0.07461198419332504 0.1077127605676651 -0.022918082773685455 0.0744989737868309 -0.05049736797809601 -0.007010570261627436 0.01959492824971676 0.03924959897994995 -0.09993437677621841 -0.06325499713420868 -0.01661067269742489 -0.07967863976955414 0.14363190531730652 -0.015662018209695816 -0.02093891240656376 0.04359278455376625 0.04031272605061531 -0.061708755791187286 -0.06158832088112831 -0.08122558891773224 -0.0176957156509161 -0.06766296923160553 -0.028124984353780746 0.03759623318910599 0.09291839599609375 -0.01383242942392826 -0.1076691746711731 -0.09555083513259888 0.125706747174263 -0.06827586144208908 0.04187493398785591 -0.010491185821592808 -0.09215938299894333 -0.06896409392356873 -0.025719448924064636 -0.10940805822610855 -0.004479991737753153 -0.046406298875808716 0.07192127406597137 0.025432942435145378 -0.06599082797765732 -0.030394110828638077 -0.11803760379552841 0.005150815937668085 -0.07811952382326126 -0.07718494534492493 0.08361992985010147 -0.03647960349917412 -0.010996750555932522 0.043830506503582 0.0406043604016304 0.09211712330579758 0.07653366029262543 0.052415262907743454 0.04617135226726532 0.04348380118608475 -0.011772774159908295 0.11560235172510147 0.0607188455760479 0.005356359761208296 -0.00514731090515852 -0.013217916712164879 0.03343009948730469 0.0522720105946064 0.033052634447813034 -0.031918350607156754 0.008203798905014992 -0.027024289593100548 0.05429060757160187 0.0037257689982652664 0.029254848137497902 -0.11346195638179779 0.007276509422808886 0.10476380586624146 0.017989609390497208 0.08378981798887253 -0.04380794242024422 0.023733090609312057 0.011937921866774559 -0.05919230729341507 -0.08559730648994446 -0.08059234917163849 -0.02207680605351925 0.05121149495244026 0.07145552337169647 0.06703276187181473 0.08550750464200974 -0.03389454260468483 -0.022302519530057907 0.11555846780538559 -0.017461782321333885 -0.0077856192365288734 0.03949030861258507 -0.07946556061506271 0.010421626269817352 0.021977366879582405 0.0731031596660614 -0.010802997276186943 0.061916302889585495 -0.0572672002017498 0.06310118734836578 -0.026459751650691032 0.010972006246447563 0.016195621341466904 -0.04605979844927788 -0.13245956599712372 -0.05151376500725746 0.09676109254360199 0.004191536922007799 -0.005746977403759956 0.07771509140729904 -0.10040730983018875 0.02390710636973381 0.027017859742045403 -0.028074709698557854 0.07037243247032166 0.07042916119098663 0.040168777108192444 0.11227664351463318 0.034362249076366425 -0.006013012491166592 -0.022809283807873726 -0.04336090385913849 -0.04661644250154495 -0.03581877052783966 0.0804760530591011 0.021252719685435295 0.06574984639883041 -0.04952147975564003 0.031366895884275436 -0.0970088541507721 -0.008873866870999336 0.03266274183988571 0.04062724858522415 -0.007994930259883404 -0.04575270041823387 0.08405637741088867 -0.04779110848903656 -0.09440150111913681 0.007311884313821793 -0.07191924750804901 -0.0076324548572301865 -0.022943858057260513 0.023427428677678108 -0.010255287401378155 0.09289911389350891 0.008230401203036308 -0.02197743020951748 -0.08511213958263397 0.0926935225725174 0.05915658175945282 0.02886800281703472 -0.054481785744428635 -0.028611812740564346 -0.09085926413536072 0.04756353050470352 0.03164907172322273 0.009508653543889523 0.010075355879962444 -0.0766526386141777 0.0424150750041008 -0.004633067175745964
7 0.04362592101097107 0.08511544018983841 0.03748997673392296 0.04071507602930069 -0.022356469184160233 -0.04231688007712364 0.06150854006409645 -0.15897488594055176 0.12790830433368683 0.14652001857757568 0.11157327145338058 -0.07868348062038422 -0.09605539590120316 0.12179549783468246 -0.05625016987323761 0.09296982735395432 0.03295797482132912 0.07048658281564713 0.0026133721694350243 -0.04333513602614403 -0.00140457006637007 0.04416821897029877 0.07152887433767319 -0.015322231687605381 0.04368290305137634 -0.0642142966389656 -0.04703531786799431 -0.06760423630475998 0.06251917779445648 -0.04604577645659447 0.03678912669420242 -0.04200220853090286 -0.0731646940112114 -0.027284778654575348 0.0126844123005867 0.02782614529132843 0.05471693351864815 -0.0031051926780492067 -0.01083350833505392 0.10029453039169312 0.06752219796180725 -0.029343754053115845 0.17263126373291016 -0.09198977053165436 -0.07467465847730637 -0.08150850981473923 -0.0019839906599372625 0.0012115942081436515 -0.11722474545240402 0.1048402264714241 0.022743558511137962 -0.010127803310751915 -0.022836053743958473 -0.006017335690557957 -0.023796357214450836 -0.057820163667201996 -0.08400876820087433 -0.02036358416080475 -0.08338208496570587 -0.06553903967142105 -0.01580883003771305 0.09949240833520889 -0.01955573447048664 -0.018833639100193977 -0.08265163749456406 0.019431864842772484 0.02252522110939026 0.019808167591691017 -0.04929131269454956 0.024651285260915756 0.05696181580424309 0.037735797464847565 0.027755098417401314 0.03893116116523743 -0.18523792922496796 -0.10553384572267532 0.04716688022017479 0.00036737130722030997 0.03388923406600952 0.12667861580848694 0.0690067708492279 -0.05254437401890755 0.06955303996801376 0.07852434366941452 -0.020081639289855957 -0.01728382334113121 -0.08779139816761017 0.06557587534189224 0.014244050718843937 -0.03425273299217224 0.12970267236232758 -0.06718076765537262 -0.044149190187454224 -0.04194842651486397 -0.042199455201625824 -0.0011991203064098954 0.14877328276634216 0.02980003133416176 0.05814376100897789 -0.004180413205176592 -0.0866674855351448 -0.02382327802479267 0.048165205866098404 0.031100885942578316 0.04917897656559944 -0.10472995787858963 -0.049064841121435165 -0.05609474703669548 0.04325834661722183 -0.020934587344527245 -0.007317648269236088 -0.011261334642767906 -0.019419804215431213 -0.032998278737068176 0.01565721072256565 -0.083236925303936 -0.0005703190108761191 -0.01750490628182888 0.1232750192284584 0.08328418433666229 -0.04894935339689255 0.13379068672657013 -0.025986572727560997 0.03033999539911747 -0.01593010313808918 -0.08792726695537567 -0.012287701480090618 -0.1506652534008026 0.016970442607998848 0.017355211079120636 0.07753831893205643 -0.10484296828508377 -0.053343769162893295 0.03801184892654419 -0.01630154624581337 -0.012757948599755764 0.03304685279726982 0.03114532120525837 -0.05161753296852112 0.08173345774412155 -0.05154440551996231 0.09506676346063614 -0.07288170605897903 -0.008727012202143669 -0.010853097774088383 0.05689683184027672 -0.10597742348909378 -0.04577162116765976 -0.01802167482674122 -0.06899414956569672 0.1696561723947525 -0.021983766928315163 -0.010373104363679886 0.056927017867565155 0.0157175175845623 -0.06717365980148315 -0.042679835110902786 -0.09703352302312851 0.016007745638489723 -0.0715768039226532 -0.02761153317987919 0.08559572696685791 0.11431951075792313 -0.03297187760472298 -0.11524012684822083 -0.09247034788131714 0.09295283257961273 -0.05693579465150833 0.06322477012872696 -0.02758648432791233 -0.06537753343582153 -0.062425367534160614 -0.03848141059279442 -0.11752699315547943 0.003060612827539444 -0.0508301816880703 0.076304592192173 0.028644967824220657 -0.0460786409676075 -0.022231895476579666 -0.0922103151679039 0.0019940496422350407 -0.05529852584004402 -0.08607260882854462 0.09175831824541092 -0.016379106789827347 -0.014962207525968552 0.0453505702316761 0.09799802303314209 0.12309994548559189 0.08989845961332321 0.0493566058576107 0.0454871766269207 0.038852546364068985 0.03967743366956711 0.12576134502887726 0.06451430171728134 0.010031464509665966 -0.004806924611330032 -0.015909506008028984 0.006019933149218559 0.02762860618531704 0.018955988809466362 -0.017730727791786194 0.026815589517354965 -0.06299663335084915 0.035751696676015854 -0.007284947670996189 0.035727351903915405 -0.11136633902788162 -0.055344194173812866 0.11726370453834534 0.030173197388648987 0.02801777608692646 -0.08302084356546402 -0.031391505151987076 -0.03233030065894127 -0.06748738884925842 -0.08135514706373215 -0.07419496029615402 -0.048018522560596466 0.028538526967167854 0.09933915734291077 0.04187972843647003 0.10317860543727875 -0.07620071619749069 0.03273135796189308 0.11940011382102966 -0.016845470294356346 -0.00604845630005002 0.010060693137347698 -0.1074933409690857 -0.014243684709072113 0.0001550826709717512 0.06888784468173981 -1.2633465303224511e-05 0.027404822409152985 -0.03779364004731178 0.06156647205352783 -0.033956129103899 0.012104498222470284 0.013478673994541168 -0.03905290365219116 -0.11494393646717072 -0.03746829181909561 0.10899883508682251 -0.013844861648976803 -0.03428271412849426 0.05902358889579773 -0.07659221440553665 0.0174265094101429 0.02667131833732128 0.0027951577212661505 0.06970954686403275 0.08818907290697098 0.03685322403907776 0.0745522603392601 -0.011715906672179699 0.011515910737216473 -0.08110243827104568 -0.044572655111551285 -0.032741907984018326 -0.002234353683888912 0.07695814967155457 0.000698089599609375 0.11087863892316818 -0.05002949386835098 0.015798140317201614 -0.11555369198322296 0.01057734340429306 0.08453813940286636 0.06658478826284409 -0.02221224270761013 -0.06157401576638222 0.10215605795383453 -0.022867688909173012 -0.08214078843593597 0.033759795129299164 -0.0606863796710968 -0.024178992956876755 -0.041718024760484695 -0.04914777725934982 -0.012457760982215405 0.07338446378707886 0.024271873757243156 -0.0364668071269989 -0.12527790665626526 0.045504771173000336 0.05759264528751373 0.05392497032880783 -0.0306742861866951 -0.0552961528301239 -0.13202296197414398 0.08994310349225998 -0.0224665068089962 0.021793583407998085 -0.028313148766756058 -0.08788444846868515 0.0456828698515892 0.026115180924534798
8 0.057734064757823944 0.09092005342245102 0.032565176486968994 -0.02082362025976181 0.005929642356932163 -0.05494768172502518 0.024950413033366203 -0.15218929946422577 0.10479464381933212 0.1292242556810379 0.06371579319238663 -0.0846409872174263 -0.08244656771421432 0.13299283385276794 -0.059671320021152496 0.0667949840426445 0.031231889501214027 0.050603825598955154 -0.011208229698240757 -0.048160310834646225 0.01711484231054783 0.05430542305111885 0.07117685675621033 -0.03632602468132973 0.045691508799791336 -0.06621989607810974 -0.015668382868170738 -0.04584499076008797 0.07588005065917969 -0.06601899862289429 0.06990984827280045 -0.05803219974040985 -0.06639211624860764 -0.0219779871404171 0.0038280487060546875 0.019628286361694336 0.08370894938707352 -0.0010936412727460265 -0.03632119297981262 0.13136132061481476 0.007164813112467527 -0.02226858027279377 0.16181327402591705 -0.05325595289468765 -0.0374179482460022 -0.08036081492900848 -0.05085096135735512 0.013183817267417908 -0.08489187806844711 0.11598605662584305 0.016585471108555794 -0.008346039801836014 0.0008855981868691742 0.030813125893473625 -0.013642960228025913 -0.0716385543346405 -0.07799549400806427 -0.024508008733391762 -0.08259306848049164 -0.0875772088766098 -5.190423325984739e-05 0.10724907368421555 -0.04607201740145683 -0.05317968130111694 -0.06967233121395111 0.008204526267945766 0.030878882855176926 0.0011708622332662344 -0.046266838908195496 -0.02503942884504795 0.041009385138750076 0.039740562438964844 0.033670343458652496 0.02869265154004097 -0.16788466274738312 -0.07491698861122131 0.04813900962471962 0.008354734629392624 0.033920835703611374 0.051571134477853775 0.09257818013429642 -0.07266797125339508 0.037480778992176056 0.06703514605760574 -0.03465621918439865 -0.06213542819023132 -0.10490401089191437 0.08253210037946701 0.03392837569117546 -0.009502572938799858 0.09140897542238235 -0.07399247586727142 -0.010265715420246124 -0.05701720342040062 -0.07252324372529984 -0.02254962921142578 0.13890273869037628 0.038536250591278076 0.009066845290362835 -0.0021990512032061815 -0.04256877675652504 -0.04212375357747078 0.05663376674056053 0.014428777620196342 0.08298370987176895 -0.08027292042970657 -0.010223997756838799 -0.02801174856722355 0.042353324592113495 -0.031696319580078125 -0.008826377801597118 0.004474761430174112 0.005530478898435831 -0.024011794477701187 -0.03134048730134964 -0.0741746574640274 0.022241754457354546 -0.04453165829181671 0.130879744887352 0.11986307054758072 -0.01843448355793953 0.1636466681957245 -0.028468435630202293 0.015552104450762272 0.028091127052903175 -0.09502766281366348 0.017362553626298904 -0.12913237512111664 0.03716424107551575 0.048037175089120865 0.05007443577051163 -0.11141083389520645 -0.030213456600904465 0.03398256376385689 -0.03614015877246857 0.009790806099772453 0.015259682200849056 0.01616535522043705 -0.12873852252960205 0.09589256346225739 -0.06009630486369133 0.07960624247789383 -0.07060611248016357 -0.025103142485022545 -0.01874079555273056 0.07781188935041428 -0.11570753902196884 -0.0007190450560301542 -0.03551401570439339 -0.10346244275569916 0.1795405149459839 -0.016854144632816315 -0.006427617743611336 0.02759202942252159 0.004268544726073742 -0.059610314667224884 -0.07563148438930511 -0.09320519119501114 0.03843975067138672 -0.08731197565793991 -0.025693446397781372 0.05751175433397293 0.10874605178833008 -0.032104115933179855 -0.12438975274562836 -0.0926666259765625 0.0833125039935112 -0.0817580297589302 0.053580183535814285 -0.02145596779882908 -0.07244735956192017 -0.0901503935456276 -0.010590026155114174 -0.09879346936941147 -0.026425179094076157 -0.03731444105505943 0.08838016539812088 0.026324372738599777 -0.0487920381128788 -0.022119928151369095 -0.10112839192152023 0.009298167191445827 -0.06440653651952744 -0.0553116500377655 0.09537944197654724 -0.04749637469649315 -0.021156752482056618 0.03727851063013077 0.0643564909696579 0.09764460474252701 0.08394191414117813 0.023587794974446297 0.020341934636235237 0.03981204703450203 0.006568503100425005 0.16881918907165527 0.0030264549423009157 -0.011503604240715504 0.01087413914501667 0.0013081368524581194 0.045322153717279434 0.045409396290779114 0.0012207842664793134 -0.009217627346515656 0.032420165836811066 -0.04077959060668945 0.07563407719135284 -0.0007715935353189707 0.05451429635286331 -0.10835793614387512 -0.03945399448275566 0.0882377102971077 0.03464171290397644 0.03141885995864868 -0.07807517796754837 -0.052176639437675476 0.0090140076354146 -0.04753604903817177 -0.09091202914714813 -0.07011117041110992 -0.049278341233730316 0.008035958744585514 0.0839497521519661 0.015234704129397869 0.09204499423503876 -0.08082034438848495 0.018713809549808502 0.09082497656345367 -0.0021316143684089184 -0.01827014796435833 0.03458493947982788 -0.09766878932714462 -0.006479288451373577 0.024746347218751907 0.07194442301988602 -0.012978168204426765 0.041461121290922165 -0.0510355569422245 0.07714072614908218 -0.025586554780602455 0.033264078199863434 0.021524956449866295 -0.09561143070459366 -0.14036138355731964 -0.05167060345411301 0.14205493032932281 -0.024667344987392426 -0.03569629788398743 0.07497784495353699 -0.09490890055894852 0.01407899521291256 0.054878223687410355 0.0025646330323070288 0.04300588369369507 0.0969570204615593 0.028507491573691368 0.09134747087955475 -0.016055716201663017 -0.013032324612140656 -0.08292843401432037 -0.05888914689421654 -0.030950941145420074 -0.020328927785158157 0.08318911492824554 0.0042396909557282925 0.12857072055339813 -0.057726696133613586 0.01389312744140625 -0.07093202322721481 -0.0031257790978997946 0.021700412034988403 0.06584540754556656 -0.01873105578124523 -0.05960143357515335 0.12689465284347534 -0.02878951095044613 -0.07425393164157867 0.04259727895259857 -0.09130708873271942 0.0033115935511887074 -0.04408273845911026 -0.017447583377361298 0.004673207178711891 0.08554365485906601 -0.014775235205888748 -0.03581110015511513 -0.10410071164369583 0.07860551029443741 0.01700602099299431 0.05623513087630272 -0.027636883780360222 -0.05585170164704323 -0.11053584516048431 0.09328323602676392 0.009634383022785187 0.04036574810743332 -0.04993873089551926 -0.08790545910596848 0.047088902443647385 0.031572118401527405
9 0.09925089031457901 0.06489504873752594 0.09036293625831604 -0.013865796849131584 0.04206099733710289 -0.062220584601163864 0.00892986822873354 -0.11548735201358795 0.12896840274333954 0.13294219970703125 0.1095094308257103 -0.08583411574363708 -0.10312183946371078 0.09656698256731033 -0.05665791034698486 0.07782359421253204 0.00267878663726151 0.07570870220661163 -0.02105782926082611 -0.05336155369877815 0.01207723468542099 0.03699464350938797 0.05529708042740822 0.03283488750457764 0.06615478545427322 -0.1094369888305664 0.010310112498700619 -0.07633460313081741 0.053638700395822525 -0.0701865702867508 0.08491574227809906 -0.08363515883684158 -0.05451984703540802 0.014768576249480247 0.019342349842190742 0.03437095507979393 0.06911608576774597 0.017085207626223564 -0.023312773555517197 0.1521073281764984 0.04494732245802879 -0.03824625164270401 0.16042666137218475 -0.08076882362365723 -0.06569609045982361 -0.07831301540136337 -0.038822222501039505 -0.023937515914440155 -0.0856228843331337 0.09344178438186646 -0.010735620744526386 -0.012967652641236782 -0.0027141207829117775 0.02482566423714161 -0.030476629734039307 -0.0845988318324089 -0.02515382319688797 -0.03726794943213463 -0.1112050861120224 -0.09423711895942688 -0.02986198663711548 0.06755741685628891 -0.042248111218214035 -0.04869866743683815 -0.06263216584920883 -0.014688612893223763 0.04625706747174263 -0.011247128248214722 -0.09913495182991028 -0.014399275183677673 0.03332693502306938 0.023059168830513954 0.03623054549098015 0.047092050313949585 -0.19324232637882233 -0.12288317829370499 0.05560143291950226 0.009403856471180916 0.05082953721284866 0.03482509404420853 0.027460895478725433 -0.0985991582274437 0.04822810739278793 0.07650679349899292 -0.0154793169349432 -0.05396309494972229 -0.09851794689893723 0.07410836219787598 0.04224410280585289 -0.005836003925651312 0.16578269004821777 -0.08609627187252045 0.0007810109527781606 -0.04928504303097725 -0.07530751079320908 -0.05838606506586075 0.1295577436685562 0.014181910082697868 -0.003748736809939146 -0.010915345512330532 -0.07694593071937561 -0.05725309997797012 0.02873487025499344 0.008211160078644753 0.07684925198554993 -0.0548248291015625 -0.005431428551673889 -0.02697811834514141 0.0342588797211647 -0.03196040168404579 -0.025517717003822327 -0.00898047350347042 -0.04524028301239014 -0.001142120105214417 -0.01737530715763569 -0.08525414019823074 0.009537950158119202 -0.007602740079164505 0.12453141808509827 0.16571585834026337 -0.025073280557990074 0.19033505022525787 -0.06691638380289078 -0.00020788892288692296 0.01507645659148693 -0.10670635104179382 0.03410904482007027 -0.14571525156497955 0.06430362910032272 0.0321100689470768 0.08025369793176651 -0.08080659061670303 -0.04511738568544388 0.0409841425716877 -0.0654582753777504 0.03574888035655022 0.02642827108502388 0.008307206444442272 -0.08966825902462006 0.11031901836395264 -0.038425929844379425 0.12293267250061035 -0.05644899606704712 0.005200784187763929 -0.012729113921523094 0.041378360241651535 -0.09707742929458618 0.0030388168524950743 -0.023424703627824783 -0.11230246722698212 0.17551378905773163 -0.01188312005251646 -0.061700012534856796 0.04374868795275688 0.03338731825351715 -0.08547181636095047 -0.06940606236457825 -0.06927895545959473 0.024591760709881783 -0.05782303586602211 0.0029943925328552723 0.04597453773021698 0.1080046072602272 -0.02396402508020401 -0.17178550362586975 -0.07321398705244064 0.1313270926475525 -0.06819935142993927 0.06988679617643356 -0.009016785770654678 -0.0549825094640255 -0.0784231498837471 -0.06029512733221054 -0.11524147540330887 -0.021997475996613503 -0.05153071880340576 0.09189461171627045 0.04179160296916962 -0.08486513793468475 -0.058525409549474716 -0.09046124666929245 0.012845654971897602 -0.09958049654960632 -0.10815256088972092 0.09398757666349411 -0.022922273725271225 0.01381326001137495 0.04899664595723152 0.04024334251880646 0.11406654864549637 0.09534900635480881 0.031085243448615074 0.031994350254535675 0.05173425003886223 -0.030170971527695656 0.13756850361824036 0.031490471214056015 -0.035107288509607315 0.0007330013322643936 -0.011979078873991966 0.02700040303170681 0.02294127456843853 0.016528746113181114 -0.023740164935588837 0.019938409328460693 -0.06977438926696777 0.05478838458657265 -0.0028923130594193935 0.02976381406188011 -0.13948611915111542 -0.02950349636375904 0.0847911611199379 0.03604714944958687 0.06312146037817001 -0.07677759230136871 -0.021520638838410378 -0.05652425438165665 -0.06154998391866684 -0.11000736802816391 -0.10834773629903793 -0.025447508320212364 0.0547308623790741 0.08017613738775253 0.07019045203924179 0.08961399644613266 -0.09247738867998123 0.02644502744078636 0.12865661084651947 -0.0034623024985194206 -0.0037176276091486216 -0.0013924128143116832 -0.10605031996965408 0.024542493745684624 0.04223531484603882 0.02995908632874489 -0.015273227356374264 0.08008163422346115 -0.016703883185982704 0.12316392362117767 -0.05320082977414131 0.03289857879281044 0.04559171572327614 -0.07801596820354462 -0.18401192128658295 -0.06757388263940811 0.12507155537605286 -0.028835924342274666 -0.021576622501015663 0.06500939279794693 -0.14141593873500824 0.016552992165088654 0.04036528989672661 -0.03604686260223389 0.061458081007003784 0.1226683035492897 0.01429053209722042 0.11199641972780228 -0.02275215834379196 0.002316004130989313 -0.11374586820602417 -0.0627565011382103 0.0176239013671875 -0.030660219490528107 0.07225707918405533 0.02502639964222908 0.10217613726854324 -0.09973839670419693 0.005334202200174332 -0.06279145926237106 -0.03196069225668907 0.018317917361855507 0.07354158908128738 -0.0478658564388752 -0.07234375178813934 0.1022767648100853 -0.00048403197433799505 -0.11994470655918121 0.038846705108881 -0.02811112068593502 0.018535710871219635 -0.03933503478765488 0.06423380225896835 0.003290490247309208 0.06129484623670578 -0.032444339245557785 -0.04763279855251312 -0.09688963741064072 0.0726909413933754 0.03310365229845047 0.03624900430440903 -0.05131777003407478 -0.04859200119972229 -0.10647505521774292 0.07247579842805862 -0.006981282494962215 0.015032297000288963 -0.007138626649975777 -0.10022861510515213 0.0793352723121643 0.020701831206679344
